the 0.27204 -0.06203 -0.1884 0.023225 -0.018158 0.0067192 -0.13877 0.17708 0.17709 2.5882 -0.35179 -0.17312 0.43285 -0.10708 0.15006 -0.19982 -0.19093 1.1871 -0.16207 -0.23538 0.003664 -0.19156 -0.085662 0.039199 -0.066449 -0.04209 -0.19122 0.011679 -0.37138 0.21886 0.0011423 0.4319 -0.14205 0.38059 0.30654 0.020167 -0.18316 -0.0065186 -0.0080549 -0.12063 0.027507 0.29839 -0.22896 -0.22882 0.14671 -0.076301 -0.1268 -0.0066651 -0.052795 0.14258 0.1561 0.05551 -0.16149 0.09629 -0.076533 -0.049971 -0.010195 -0.047641 -0.16679 -0.2394 0.0050141 -0.049175 0.013338 0.41923 -0.10104 0.015111 -0.077706 -0.13471 0.119 0.10802 0.21061 -0.051904 0.18527 0.17856 0.041293 -0.014385 -0.082567 -0.035483 -0.076173 -0.045367 0.089281 0.33672 -0.22099 -0.0067275 0.23983 -0.23147 -0.88592 0.091297 -0.012123 0.013233 -0.25799 -0.02972 0.016754 0.01369 0.32377 0.039546 0.042114 -0.088243 0.30318 0.087747 0.16346 -0.40485 -0.043845 -0.040697 0.20936 -0.77795 0.2997 0.2334 0.14891 -0.39037 -0.053086 0.062922 0.065663 -0.13906 0.094193 0.10344 -0.2797 0.28905 -0.32161 0.020687 0.063254 -0.23257 -0.4352 -0.017049 -0.32744 -0.047064 -0.075149 -0.18788 -0.015017 0.029342 -0.3527 -0.044278 -0.13507 -0.11644 -0.1043 0.1392 0.0039199 0.37603 0.067217 -0.37992 -1.1241 -0.057357 -0.16826 0.03941 0.2604 -0.023866 0.17963 0.13553 0.2139 0.052633 -0.25033 -0.11307 0.22234 0.066597 -0.11161 0.062438 -0.27972 0.19878 -0.36262 -1.0006e-05 -0.17262 0.29166 -0.15723 0.054295 0.06101 -0.39165 0.2766 0.057816 0.39709 0.025229 0.24672 -0.08905 0.15683 -0.2096 -0.22196 0.052394 -0.01136 0.050417 -0.14023 -0.042825 -0.031931 -0.21336 -0.20402 -0.23272 0.07449 0.088202 -0.11063 -0.33526 -0.014028 -0.29429 -0.086911 -0.1321 -0.43616 0.20513 0.0079362 0.48505 0.064237 0.14261 -0.43711 0.12783 -0.13111 0.24673 -0.27496 0.15896 0.43314 0.090286 0.24662 0.066463 -0.20099 0.1101 0.03644 0.17359 -0.15689 -0.086328 -0.17316 0.36975 -0.40317 -0.064814 -0.034166 -0.013773 0.062854 -0.17183 -0.12366 -0.034663 -0.22793 -0.23172 0.239 0.27473 0.15332 0.10661 -0.060982 -0.024805 -0.13478 0.17932 -0.37374 -0.02893 -0.11142 -0.08389 -0.055932 0.068039 -0.10783 0.1465 0.094617 -0.084554 0.067429 -0.3291 0.034082 -0.16747 -0.25997 -0.22917 0.020159 -0.02758 0.16136 -0.18538 0.037665 0.57603 0.20684 0.27941 0.16477 -0.018769 0.12062 0.069648 0.059022 -0.23154 0.24095 -0.3471 0.04854 -0.056502 0.41566 -0.43194 0.4823 -0.051759 -0.27285 -0.25893 0.16555 -0.1831 -0.06734 0.42457 0.010346 0.14237 0.25939 0.17123 -0.13821 -0.066846 0.015981 -0.30193 0.043579 -0.043102 0.35025 -0.19681 -0.4281 0.16899 0.22511 -0.28557 -0.1028 -0.018168 0.11407 0.13015 -0.18317 0.1323
and -0.18567 0.066008 -0.25209 -0.11725 0.26513 0.064908 0.12291 -0.093979 0.024321 2.4926 -0.017916 -0.071218 -0.24782 -0.26237 -0.2246 -0.21961 -0.12927 1.0867 -0.66072 -0.031617 -0.057328 0.056903 -0.27939 -0.39825 0.14251 -0.085146 -0.14779 0.055067 -0.0028687 -0.20917 -0.070735 0.22577 -0.15881 -0.10395 0.09711 -0.56251 -0.32929 -0.20853 0.0098711 0.049777 0.0014883 0.15884 0.042771 -0.0026956 -0.02462 -0.19213 -0.22556 0.10838 0.090086 -0.13291 0.32559 -0.17038 -0.1099 -0.23986 -0.024289 0.014656 -0.237 0.084828 -0.35982 -0.076746 0.048909 0.11431 -0.21013 0.24765 -0.017531 -0.14028 0.046191 0.22972 0.1175 0.12724 0.012992 0.4587 0.41085 0.039106 0.15713 -0.18376 0.26834 0.056662 0.16844 -0.053788 -0.091892 0.11193 -0.08681 -0.13324 0.15062 -0.31733 -0.22078 0.25038 0.34131 0.36419 -0.089514 -0.22193 0.24471 0.040091 0.47798 -0.029996 0.0019212 0.063511 -0.20417 -0.26478 0.20649 0.015573 -0.27722 -0.18861 -0.10289 -0.49773 0.14986 -0.010877 0.25085 -0.28117 0.18966 -0.065879 0.094753 -0.15338 -0.055071 -0.36747 0.24993 0.096527 0.23538 0.18405 0.052859 0.22967 0.12582 0.15536 -0.17275 0.33946 -0.10049 0.074948 -0.093575 -0.04049 -0.016922 -0.0058039 -0.18108 0.19537 0.45178 0.10965 0.2337 -0.09905 -0.078633 0.21678 -0.71231 -0.099759 0.33333 -0.1646 -0.091688 0.21056 0.023669 0.028922 0.1199 -0.12512 -0.026037 -0.062217 0.55816 0.0050273 -0.30888 0.038611 0.17568 -0.11163 -0.10815 -0.19444 0.29433 0.14519 -0.042878 0.18534 0.018891 -0.61883 0.13352 0.036007 0.33995 0.22109 -0.079328 0.071319 0.17678 0.16378 -0.23142 -0.1434 -0.098122 -0.019286 0.2356 -0.34013 -0.061007 -0.23208 -0.31152 0.10063 -0.15957 0.20183 -0.016345 -0.12303 0.022667 -0.20986 -0.20127 -0.087883 0.064731 0.10195 -0.1786 0.33056 0.21407 -0.32165 -0.17106 0.19407 -0.38618 -0.2148 -0.052254 0.023175 0.47389 0.18612 0.12711 0.20855 -0.10256 -0.12016 -0.40488 0.029695 -0.027419 -0.0085227 -0.11415 0.081134 -0.17228 0.19142 0.026514 0.043789 -0.12399 0.13354 0.10112 0.081682 -0.15085 0.0075806 -0.18971 0.24669 0.22491 0.35553 -0.3277 -0.21821 0.1402 0.28604 0.055226 -0.086544 0.02111 -0.19236 0.074245 0.076782 0.00081666 0.034097 -0.57719 0.10657 0.28134 -0.11964 -0.68281 -0.32893 -0.24442 -0.025847 0.0091273 0.2025 -0.050959 -0.11042 0.010962 0.076773 0.40048 -0.40739 -0.44773 0.31954 -0.036326 -0.012789 -0.17282 0.1476 0.2356 0.080642 -0.36528 -0.0083443 0.6239 -0.24379 0.019917 -0.28803 -0.010494 0.038412 -0.11718 -0.072462 0.16381 0.38488 -0.029783 0.23444 0.4532 0.14815 -0.027021 -0.073181 -0.1147 -0.0054545 0.47796 0.090912 0.094489 -0.36882 -0.59396 -0.097729 0.20072 0.17055 -0.0047356 -0.039709 0.32498 -0.023452 0.12302 0.3312
to 0.31924 0.06316 -0.27858 0.2612 0.079248 -0.21462 -0.10495 0.15495 -0.03353 2.4834 -0.50904 0.08749 0.21426 0.22151 -0.25234 -0.097544 -0.1927 1.3606 -0.11592 -0.10383 0.21929 0.11997 -0.11063 0.14212 -0.16643 0.21815 0.0042086 -0.070012 -0.23532 -0.26518 0.031248 0.16669 -0.089777 0.20059 0.31614 -0.5583 0.075735 0.27635 0.12741 -0.18185 -0.12722 0.024686 -0.077233 -0.48998 0.020355 0.0039164 0.1215 0.089723 -0.078975 0.081443 -0.099087 -0.055621 0.10737 -0.0044042 0.48496 0.11717 -0.017329 0.109 -0.35558 0.051084 0.15714 0.17961 -0.29711 0.033645 -0.025792 -0.013931 -0.23 -0.040306 0.22282 -0.013544 0.011554 0.3911 0.26533 -0.31012 0.40539 -0.042975 0.020811 -0.33033 0.19573 -0.037958 0.10274 -0.0013581 -0.44505 0.077886 0.08511 -0.20285 -0.19481 0.056933 0.53105 0.034154 -0.56996 -0.18469 0.093403 0.28044 -0.23349 0.10938 -0.014288 -0.274 0.034196 -0.098479 0.13268 0.19437 0.13463 -0.099059 0.040324 -0.66272 0.3571 0.15429 0.18598 0.087542 0.080538 -0.25121 0.24155 0.1783 0.036011 -0.027677 0.21161 -0.29107 -0.0083456 0.11317 0.31064 -0.10693 -0.27367 -0.039785 0.039881 0.034462 -0.16518 0.16115 0.060826 0.3075 -0.22398 0.14619 -0.2661 0.49732 -0.13996 -0.24287 0.039469 -0.084495 -0.24315 0.070701 -1.0136 -0.21733 -0.36878 -0.24973 0.17472 -0.011592 0.068561 -0.090411 0.21878 -0.2639 0.11904 0.14285 -0.18707 -0.13474 -0.13232 -0.26553 0.22947 -0.018215 0.0067383 -0.1019 0.10053 -0.1127 -0.13295 0.15951 0.14906 -0.095578 0.26992 0.011057 0.056568 0.021386 0.20215 0.00048589 0.5336 -0.22947 0.29275 0.17378 0.25423 -0.10976 0.058816 0.014616 -0.04306 0.10732 -0.028149 -0.19181 0.1025 -0.063892 0.012737 -0.12913 0.015037 0.26562 -0.017049 -0.060716 -0.094919 0.017775 0.13221 0.1683 -0.19323 -0.17612 0.075506 0.18939 0.12508 -0.1988 -0.16017 -0.21092 0.46933 0.044747 0.098349 0.011637 0.22281 -0.010837 -0.04833 -0.47335 -0.36811 -0.13592 -0.15086 0.25416 0.069531 0.14211 -0.26703 -0.1259 0.12076 -0.26117 0.033024 -0.034398 -0.13968 0.13446 -0.16709 0.15002 -0.13724 0.091226 -0.27718 0.020098 0.26919 0.43016 0.094019 -0.085496 -0.25192 -0.11645 -0.039734 0.0046738 0.54178 -0.16636 0.34546 0.098501 0.47819 -0.38428 -0.3238 -0.14822 -0.47817 0.16704 -0.064505 0.11834 -0.3448 0.096891 0.32309 0.41471 0.19463 -0.20891 -0.12223 -0.058298 -0.20268 0.2948 0.043397 0.10112 0.27177 -0.52124 -0.073794 0.044808 0.41388 0.088782 0.62255 -0.072391 0.090129 0.15428 0.023163 -0.13028 0.061762 0.33803 -0.091581 0.21039 0.05108 0.19184 0.10444 0.2138 -0.35091 -0.23702 0.038399 -0.10031 0.18359 0.025178 -0.12977 0.3713 0.18888 -0.0042738 -0.10645 -0.2581 -0.044629 0.082745 0.097801 0.25045
of 0.060216 0.21799 -0.04249 -0.38618 -0.15388 0.034635 0.22243 0.21718 0.0068483 2.4375 -0.27418 0.13572 0.31086 -0.063206 0.00038225 -0.18597 -0.19333 1.4447 -0.38541 -0.28549 0.075627 -0.036799 -0.46068 -0.016835 0.19821 -0.092746 0.18954 -0.00032648 -0.17081 0.50359 0.46256 0.26901 -0.12256 0.24713 0.069305 -0.20777 -0.4456 0.30223 -0.0098344 0.32772 0.11038 0.41271 -0.15854 -0.056983 0.38918 -0.21158 -0.13307 0.40406 0.1749 0.053949 0.10984 -0.18476 -0.054014 0.040112 -0.10175 0.12662 0.069709 -0.24071 -0.20995 -0.051381 0.28219 0.18598 -0.5018 0.27572 -0.18497 -0.18399 0.15696 -0.038444 -0.52238 0.22753 0.048672 -0.078837 0.065448 0.18399 0.40211 -0.12745 -0.12302 0.31072 0.099588 0.036047 -0.25946 0.36128 0.12748 -0.18667 0.16502 -0.3912 -0.67549 0.11291 0.040743 0.034973 -0.04091 -0.039791 -0.40544 -0.015867 0.10239 0.046868 -0.082776 0.015132 -0.14899 -0.25125 0.25244 -0.11851 -0.34127 0.016516 0.30405 -0.541 0.305 0.39065 0.42362 -0.41721 -0.054247 -0.26014 -0.14048 -0.14166 -0.02105 0.050822 -0.078053 0.45922 0.17598 -0.0157 0.09118 0.034263 -0.49995 0.028574 0.12068 0.19781 -0.013025 -0.22418 0.12503 0.14653 -0.23085 0.21987 -0.059321 -0.088169 -0.1252 0.0075112 -0.22421 0.6214 0.2009 -0.02899 -0.65073 0.0053506 -0.12073 0.20988 -0.1684 0.041826 0.054582 0.35247 0.2006 0.031903 -0.053307 -0.44009 0.22495 -0.30616 -0.32855 -0.015779 -0.13913 0.34309 -0.13569 -0.22276 0.14295 0.05501 -0.10616 0.23597 -0.20701 -0.30963 0.13528 -0.16144 0.29108 0.12301 0.2365 -0.26153 0.31022 0.20612 -0.19885 0.10971 -0.0018054 0.14621 0.15177 -0.4468 0.0067433 -0.028784 0.13821 -0.16566 -0.45517 0.016623 0.10703 -0.48399 0.040033 0.049625 -0.26454 -0.1468 0.13651 0.15261 0.067522 0.50405 -0.18848 0.15256 -0.26997 0.055578 0.047077 -0.17848 -0.33567 -0.03148 0.19107 0.18818 0.18778 0.18313 -0.364 -0.0054127 -0.15763 0.16386 -0.084828 -0.19838 -0.40454 0.41031 -0.41393 0.029771 0.10544 -0.11295 -0.068076 -0.22372 -0.19084 -0.080269 -0.38345 0.064712 0.23111 0.21408 0.28038 0.14221 -0.20696 0.015874 -0.14112 0.089859 -0.21533 -0.020105 0.22703 0.083425 -0.2958 0.018036 0.19885 0.17794 0.13688 -0.10302 0.029651 0.051271 -0.14787 -0.41824 0.019828 -0.26385 -0.074654 -0.015718 0.48094 0.12492 -0.11409 0.58127 0.095836 -0.095912 -0.057435 0.13883 0.10307 0.081362 -0.4669 0.50705 0.021685 -0.071623 -0.063827 -0.11154 0.61792 -0.56329 0.023565 0.18041 -0.2578 -0.50956 0.14737 -0.033317 -0.037053 0.24062 0.12641 -0.027091 0.4039 -0.02836 -0.022235 -0.11493 -0.2285 -0.05746 0.2952 -0.21914 -0.13307 -0.23647 -0.42484 0.11606 0.0048131 -0.39629 -0.26823 0.3292 -0.17597 0.11709 -0.16692 -0.094085
a 0.043798 0.024779 -0.20937 0.49745 0.36019 -0.37503 -0.052078 -0.60555 0.036744 2.2085 -0.23389 -0.06836 -0.22355 -0.053989 -0.15198 -0.17319 0.053355 1.6485 -0.047991 -0.085311 -0.15712 -0.64425 -0.39819 0.278 0.15364 0.031678 0.055414 0.015939 0.31851 -0.058979 0.038584 0.1077 0.1041 -0.077346 0.37396 -0.21482 0.3832 -0.27737 -0.18352 -0.83838 0.34124 0.58164 0.18543 -0.31028 0.17666 -0.069421 -0.34422 -0.13665 -0.10823 0.23637 -0.32923 0.61348 0.1972 0.087123 0.10785 0.3073 0.13757 0.30809 0.24331 -0.29422 -0.0098214 0.55675 -0.04888 0.099468 0.30543 -0.37597 -0.19525 0.046246 -0.036675 0.34023 0.14905 0.0978 -0.26664 0.056834 -0.043201 -0.23338 0.13111 -0.35742 -0.3607 0.30997 -0.19727 -0.1432 -0.16747 0.00042435 -0.1512 0.067562 -0.38644 0.025349 0.24918 -0.23955 -0.15615 0.49868 0.0082758 -0.1912 -0.14906 0.48757 -0.015281 0.010196 0.37642 -0.01946 -0.27835 0.16355 -0.24127 -0.21405 -0.21562 -0.79697 0.34321 0.093209 0.073977 -0.27147 0.20539 0.15061 0.020734 0.11267 0.028714 0.2967 -0.21267 0.43214 0.12788 0.29249 0.19056 -0.29113 -0.11382 -0.038242 -0.2029 0.18301 -0.16661 -0.27116 0.0012685 0.071704 -0.18583 0.08985 -0.039895 0.39479 0.0053211 -0.00061548 -0.27082 -0.089782 -0.2879 -0.14865 -1.3746 0.16515 0.20598 0.15252 0.034723 -0.38531 -0.094574 -0.19871 0.50239 -0.28702 -0.088727 0.056881 0.13634 0.19034 -0.19353 0.40506 -0.19317 0.22908 0.10055 -0.26895 -0.034727 -0.08401 0.057806 0.011076 -0.043349 -0.26917 -0.19333 0.22181 0.26123 -0.11761 0.10092 -0.15078 0.47153 0.11253 -0.26749 -0.038785 -0.03652 -0.089248 -0.24427 -0.041381 -0.021785 -0.35738 -0.063409 -0.53983 -0.010112 0.00041238 -0.097049 0.42628 -0.21349 -0.41055 -0.2494 -0.033571 -0.4954 0.15557 0.19882 0.10498 -0.24372 0.11429 -0.039279 -0.36258 0.10318 0.129 -0.41785 -0.041607 0.33522 0.073186 0.13362 0.010812 0.052645 0.18801 -0.30185 0.20333 -0.32258 -0.24673 0.21124 0.79132 -0.41539 0.3622 0.099852 -0.035378 -0.0419 -0.13851 -0.063255 0.13635 0.090863 -0.3994 0.099062 0.3221 -0.12256 -0.085906 -0.10218 0.2635 -0.18689 -0.1856 -0.43923 -0.325 -0.1991 0.17831 -0.27283 0.33473 0.082382 0.12825 0.39275 -0.034929 0.16148 -0.026713 0.40129 -0.39503 -0.064823 -0.08982 -0.066592 -0.34537 0.046283 0.36837 -0.024573 0.32213 0.30641 -0.28112 0.0066449 0.087743 -0.03417 0.60373 0.4212 -0.073349 0.26682 -0.1586 0.23765 -0.0062604 0.15236 -0.23409 0.31634 -0.08786 -0.15747 -0.24955 -0.18766 -0.096743 -0.27994 -0.24334 0.32643 0.29906 0.42763 0.22266 -0.17464 -0.019916 -0.31206 -0.34009 -0.14993 -0.28818 0.1475 -0.040503 -0.10347 0.0033634 0.2176 -0.20409 0.092415 0.080421 -0.061246 -0.30099 -0.14584 0.28188
in 0.089187 0.25792 0.26282 -0.029365 0.47187 -0.10389 -0.10013 0.08123 0.20883 2.5726 -0.67854 0.036121 0.13085 0.0012462 0.14769 0.26926 0.37144 1.3501 -0.11326 -0.23036 -0.26575 -0.18077 0.092455 -0.16215 0.15003 -0.34547 0.072295 0.40659 0.010021 -0.0079257 -0.11435 0.017008 -0.29789 0.19079 0.37112 -0.26588 0.16212 0.065469 -0.31781 -0.03226 0.081969 0.3445 -0.17362 -0.35745 0.054487 0.39941 0.13699 -0.022066 0.11025 -0.41898 0.1276 -0.095869 -0.17944 -0.17443 0.27302 -0.19464 0.26747 -0.28241 0.1638 -0.11518 0.013196 -0.10616 -0.36093 0.023634 0.13464 0.021652 -0.27094 -0.018737 0.10017 0.36071 -0.093951 0.47634 0.12874 0.0011868 0.1377 -0.14034 -0.1887 -0.16405 -0.15349 0.32347 -0.17616 0.3523 -0.023531 -0.19121 -0.054809 -0.099521 -0.30056 0.36632 -0.21509 0.074123 -0.20267 0.1286 -0.38111 -0.025482 0.45103 0.088633 0.36288 -0.23406 -0.086024 -0.50604 0.034242 0.43998 -0.083023 -0.11969 0.68686 -0.34115 0.21228 0.40039 0.26367 -0.37144 0.16206 -0.42854 0.078658 -0.2905 0.21727 -0.27484 0.35887 0.27055 -0.11326 -0.14848 -0.0050659 -0.076862 0.078621 -0.24922 0.42026 -0.069698 0.071595 0.0071665 0.27473 -0.15664 0.25713 -0.058461 -0.29733 -0.090996 0.5246 0.14889 -0.20883 -0.13004 -0.20022 0.4503 -0.34654 -0.26007 0.35247 -0.34757 0.033738 0.19907 -0.32912 -0.084689 0.65319 0.20954 0.079274 0.1086 0.0026466 -0.12843 -0.22811 0.051501 -0.27429 0.14505 -0.1843 -0.34825 -0.11701 0.34034 0.075848 0.08239 -0.39188 -0.022312 -0.080373 0.14477 0.29701 -0.10523 0.092893 0.029813 -0.11761 0.16308 0.098382 0.46152 -0.162 -0.2456 0.20293 -0.11344 0.057902 -0.19528 -0.20141 -0.22874 -0.014101 0.2637 -0.10028 -0.051896 0.18859 -0.17767 -0.11556 0.121 0.17303 0.11773 0.034837 0.28485 -0.30447 0.061024 -0.26442 -0.081135 -0.044524 -0.036931 -0.15217 0.29175 0.44926 -0.28875 0.33193 -0.01242 -0.18805 -0.19832 -0.19736 0.26893 0.11106 -0.67383 -0.1518 -0.16615 -0.16563 0.0093671 -0.15945 -0.33468 0.22038 -0.16724 -0.1535 -0.61782 -0.17258 0.088928 0.019411 0.18296 0.32967 -0.0024906 -0.09208 0.514 0.0042484 -0.084377 -0.71448 -0.22148 -0.04835 0.043761 -0.29376 -0.22287 0.18001 0.072197 0.46499 0.056466 0.40844 -0.23641 -0.038946 0.087363 -0.21901 -0.3231 -0.19989 -0.3128 -0.067656 -0.22596 0.090926 0.28365 0.31462 0.46082 -0.024871 -0.14605 0.30454 0.17704 -0.011311 0.26807 -0.032461 -0.16644 -0.15313 -0.20426 -0.3082 -0.2459 0.085848 -0.11767 -0.063056 -0.18133 -0.18629 -0.17694 0.29618 0.35987 0.0020102 0.38616 0.36712 -0.055112 -0.34733 -0.072678 -0.051119 -0.29069 0.053598 0.019587 0.16808 -0.27456 -0.097179 -0.054541 0.19229 -0.48128 -0.20304 0.19368 -0.32546 0.14421 -0.169 0.26501
for -0.17224 0.18234 -0.27847 -0.084666 0.25442 -0.19403 0.40686 0.15083 0.1467 2.0235 -0.37482 0.35648 -0.3089 -0.22356 -0.14905 -0.13722 0.0084057 1.4288 -0.27068 0.13772 -0.36068 -0.1064 -0.25892 -0.021405 -0.091887 0.19684 -0.072568 -0.10205 0.24116 0.11358 -0.07885 -0.33526 0.10925 0.33524 0.27432 -0.31051 -0.10975 -0.45724 0.35293 0.39174 0.1802 0.54142 -0.28704 -0.25404 -0.039927 0.10899 -0.03569 0.38254 -0.015887 -0.026144 -0.15714 -0.044737 0.014968 -0.0070873 0.087658 0.0077366 -0.1457 -0.061741 -0.45388 0.30605 -0.017014 -0.063985 -0.29787 0.20399 0.32647 -0.24086 -0.38758 0.42238 -0.26736 -0.29943 0.23768 0.17014 0.044736 -0.31539 0.22579 -0.055087 0.37389 -0.23561 0.19717 0.35053 -0.41176 0.48029 -0.073149 -0.087249 0.15243 -0.11238 -0.40695 0.23126 0.42527 0.54039 -0.18654 -0.12388 0.20175 0.15885 -0.24433 0.13816 -0.05275 -0.37713 0.25316 -0.1517 -0.038726 0.10583 -0.22374 -0.35832 0.5552 -0.40405 0.19802 0.37442 0.39109 -0.20125 0.21447 -0.21771 0.19883 -0.12365 0.23135 0.055844 -0.14367 0.45215 0.090552 0.22353 0.16864 0.12945 -0.17938 0.0059466 0.30603 -0.037982 -0.2342 -0.14291 0.16588 0.14113 0.11159 -0.12222 -0.21143 -0.59928 -0.12141 0.18523 0.08424 0.27563 0.00084164 -0.31465 -0.76391 -0.095779 0.21616 -0.37111 -0.37918 -0.054991 -0.077106 -0.026822 0.19469 0.068216 -0.12414 -0.13466 -0.20796 -0.60139 4.0447e-05 -0.041694 0.2925 0.16605 0.21888 -0.50904 0.25068 0.070135 -0.21918 -0.21602 -0.18442 -0.43146 0.19785 0.0080226 0.36722 -0.13148 0.023998 0.13471 0.26752 0.024872 -0.11739 0.13946 -0.036712 -0.20017 0.15539 0.3148 -0.14526 -0.57819 -0.44641 0.096624 -0.054571 -0.18836 0.073663 0.035028 -0.10157 -0.087624 -0.34328 0.077515 -0.17494 -0.093473 0.11019 0.3245 -0.0027808 -0.042048 0.021792 0.077157 0.0020113 -0.018635 -0.063576 0.091267 0.29855 0.14583 -0.052657 0.42096 0.10551 0.42326 -0.1339 -0.057948 0.0091967 -0.28813 0.21664 0.53437 -0.3869 -0.31943 -0.19912 0.052302 -0.10621 0.10387 -0.26914 -0.22388 -0.12387 -0.056268 0.045107 0.1568 0.0015951 0.18828 -0.15572 0.069977 0.094143 -0.012489 -0.069913 -0.25306 0.16792 -0.12539 -0.13384 0.1369 0.1683 0.024174 -0.27103 0.14758 0.41992 -0.011811 -0.17552 0.041223 -0.08434 -0.15541 -0.14332 0.21602 -0.4117 -0.066169 0.1057 0.29459 0.30023 0.024446 -0.2505 0.099516 -0.090528 0.36512 -0.14802 0.38177 -0.044691 -0.39547 0.087804 0.21348 0.52222 -0.26097 0.36305 -0.15252 -0.35695 0.070761 0.0092821 -0.0083663 0.37713 0.12371 -0.077069 0.3606 0.085337 0.27766 -0.065084 -0.078499 0.011443 -0.27166 0.1849 -0.28825 -0.044511 -0.10293 -0.2007 -0.41393 0.29053 -0.27788 -0.13943 -0.12238 -0.081083 -0.12668 -0.43856 0.38765
I 0.1941 0.22603 -0.43764 -0.11387 -0.072725 0.36003 -0.063595 0.056585 -0.094555 2.3561 -0.27436 0.2713 0.69901 -0.17141 -0.28441 0.079379 -0.0076581 0.80703 -0.29701 0.23268 0.10555 0.026901 -0.041876 0.42066 -0.41432 -0.035023 -0.15162 -0.30763 0.27783 -0.42092 -0.13631 0.46588 0.036089 0.025686 -0.24905 0.084332 0.20581 -0.031679 -0.36279 0.039448 -0.071993 0.19942 0.024882 0.0023524 0.3903 0.3625 -0.3792 -0.18546 0.30258 -0.20954 0.01513 -0.072947 0.094768 0.21254 0.21272 -0.10312 -0.099089 -0.53423 0.029063 -0.12531 -0.098028 -0.43503 0.0049565 0.42591 -0.13379 -0.3615 0.21092 -0.068105 0.017606 0.49779 0.075874 0.24429 0.2235 0.13629 0.35652 0.4428 0.18241 -0.093236 -0.40088 0.26121 -0.0063511 -0.08222 0.016147 -0.18581 0.26591 -0.20448 -0.074365 -0.87302 0.68109 0.24958 -0.039915 -0.27137 -0.24405 0.34407 0.19653 0.16447 0.36421 0.18319 0.063041 0.16639 -0.16222 -0.13024 0.064095 -0.20605 0.16473 -0.12235 -0.064946 -0.26915 -0.16601 0.10875 0.071209 -0.22957 0.60131 -0.27859 0.11156 -0.37373 -0.1504 -0.16 0.10028 -0.22438 0.2657 -0.33874 0.086788 -0.13 0.6869 0.19787 -0.12802 -0.13209 -0.20817 0.047213 0.16035 0.065965 -0.63071 0.37245 0.22415 -0.16013 -0.1841 0.1035 -0.040692 -0.1858 -2.0393 0.27769 0.067024 0.0088486 -0.1446 -0.16541 -0.66727 0.20438 -0.16 -0.37816 -0.12314 0.1032 -0.23701 0.19617 -0.14407 -0.17485 -0.041455 -0.2243 0.068727 -0.091408 -0.53259 0.21185 -0.023611 -0.1631 -0.38653 -0.013318 0.15667 -0.22568 0.073016 0.12123 -0.17104 -0.33741 0.18788 -0.61223 -0.10989 -0.012048 -0.21251 0.016883 0.13642 -0.22546 -0.12273 -0.34283 -0.35027 0.098409 0.08939 -0.2216 -0.24502 0.087705 -0.098716 0.086152 -0.055446 0.057648 -0.25635 -0.33443 0.17582 0.074198 -0.057964 -0.38954 -0.083356 0.038664 -0.12595 -0.10585 -0.25562 -0.084013 0.073367 0.22389 0.12266 -0.3118 0.22003 -0.059754 0.097594 -0.292 -0.31953 -0.11085 0.11601 0.15223 -0.30233 -0.32117 -0.28125 0.0073383 0.12077 -0.029077 0.16938 0.23347 0.057481 0.11003 0.54076 0.21958 -0.26702 0.014933 -0.12775 0.19244 0.042733 0.13369 0.086748 -0.21814 0.18677 -0.34724 -0.048128 0.4174 0.11124 -0.035115 0.16341 0.16368 -0.011075 -0.1504 0.027415 -0.083012 -0.26685 0.5866 -0.01813 -0.56529 -0.040783 0.14091 0.085893 -0.1501 -0.017739 -0.20643 0.1135 0.18529 0.24701 0.075324 -0.018801 0.0095814 0.20979 0.36328 0.021826 0.21683 0.1973 0.12102 0.044755 -0.24359 -0.36254 -0.45997 -0.20335 0.11032 -0.0243 -0.39688 0.028448 0.30827 0.22318 -0.14411 0.076406 -0.27333 -0.061209 -0.27783 0.26594 0.0040376 -0.084801 0.14847 -0.19408 0.18153 0.068346 0.13304 0.29181 -0.036109 0.11221 0.091957 0.38632 0.11736
that 0.09852 0.25001 -0.27018 -0.23186 0.022378 0.045321 -0.052444 -0.058867 -0.031937 3.0121 -0.023642 -0.077292 0.30742 0.073579 -0.33171 -0.16588 -0.020228 1.085 -0.42189 -0.24159 0.20511 0.025093 0.11497 -0.024636 -0.10416 0.19698 -0.20124 -0.036615 -0.15073 -0.25125 -0.16182 0.22131 -0.041937 0.064382 0.066347 -0.0069173 -0.13059 -0.037921 -0.13478 -0.095946 0.016818 0.26046 0.040114 -0.20923 0.23095 -0.059719 -0.38339 -0.10134 -0.10069 0.073018 -0.27729 0.08258 -0.073222 0.19346 0.23859 -0.052506 0.13046 -0.1345 -0.096133 -0.11073 0.098949 -0.0050032 -0.12383 0.35765 -0.11829 -0.22458 0.023951 0.24224 0.041263 0.11803 -0.0027008 0.020971 0.3115 -0.021006 -0.1889 -0.11755 -0.1038 -0.20398 -0.20374 0.34373 0.10465 0.12733 -0.34323 -0.21958 0.21851 -0.46476 -0.13259 -0.4958 0.29493 0.052023 -0.030517 0.0040759 -0.12702 0.29625 0.14591 0.051789 -0.093879 -0.085754 -0.18455 0.044252 0.058965 0.18165 -0.18175 -0.078165 0.069561 -1.285 -0.054441 0.15005 -0.16758 -0.055905 -0.03011 0.18919 -0.14799 -0.11013 0.072332 -0.064289 -0.16124 0.056683 0.17084 -0.1339 0.067247 -0.23344 0.023066 -0.10787 -0.086551 0.076817 -0.013164 -0.66599 0.080374 0.011884 -0.14544 0.057928 0.18992 0.038859 0.034437 0.1724 0.028254 -0.2956 0.18364 -0.0085466 -1.3864 0.26142 0.23629 0.2047 -0.062789 -0.16743 -0.13996 -0.043662 -0.040376 -0.18405 -0.13819 -0.15173 0.0082284 -0.060196 0.064731 -0.08564 -0.30603 -0.20295 -0.24928 -0.037877 -0.21733 0.22598 -0.12165 -0.12929 -0.17562 -0.042181 0.22738 0.0033748 0.22381 -0.10925 0.11977 -0.070582 0.10818 -0.15419 -0.068567 0.11879 0.032163 -0.12023 0.0015811 -0.031903 -0.19634 -0.012366 -0.10347 -0.13484 -0.23577 -0.0044767 0.12205 0.043512 -0.020441 0.14099 0.1091 -0.19912 -0.41783 0.2083 0.12752 0.10165 -0.18279 -0.12781 -0.11247 0.3266 -0.18286 -0.012189 -0.098733 -0.14702 0.19123 0.10175 0.066325 0.065839 -0.0069673 -0.017495 -0.10122 -0.12645 -0.17692 -0.074391 0.23176 0.2065 -0.32261 -0.016756 -0.22781 -0.26889 0.028889 0.11281 -0.087673 0.13235 0.20797 0.24392 0.088125 0.18456 -0.041869 0.18712 -0.12383 0.14974 -0.0022145 0.023455 -0.070194 0.023735 0.16384 -0.011675 -0.14943 0.31397 0.13872 0.035348 0.0062663 0.20222 0.32528 -0.38256 0.0085346 -0.41604 -0.058313 0.21325 0.098621 -0.26227 -0.0039877 0.00062827 -0.22198 0.13791 0.17525 0.082616 0.25852 -0.047226 0.40242 0.049074 -0.36251 0.099738 0.28844 0.13101 -0.058852 0.13985 0.74787 0.21331 0.14665 -0.074234 -0.023464 -0.13176 -0.023619 -0.071066 -0.16462 0.26197 0.37356 0.16785 0.15434 0.12311 0.068364 -0.042458 -0.083352 -0.14705 0.22365 0.051185 0.21317 -0.32661 -0.24267 0.11959 0.013652 -0.11243 -0.089702 -0.19614 -0.27097 -0.062639 0.24424 0.17779
's -0.06858 0.4647 0.13214 0.18599 -0.037015 0.32988 0.17865 -0.25977 -0.26022 2.5728 -0.25867 -0.66095 0.081984 0.010321 -0.12223 0.0094609 -0.088657 0.58367 -0.017465 -0.35569 -0.10182 0.061941 -0.14267 -0.40544 0.29834 0.10003 0.035899 0.2292 0.30278 -0.18259 -0.0011042 0.25792 -0.054132 0.15748 0.061311 -0.30055 0.33732 0.40023 0.042472 -0.30014 0.062963 0.072134 0.060897 -0.062527 0.27505 -0.13527 -0.2171 0.019315 0.038683 -0.12361 -0.07721 -0.1132 -0.09305 0.35217 0.193 0.048418 -0.20489 0.096088 0.077817 -0.37924 0.1129 -0.18285 -0.056815 0.37091 0.32133 -0.16343 -0.3029 0.20258 -0.19113 -0.041821 0.096427 0.28788 0.21868 0.11835 -0.58606 0.084765 0.040064 0.038934 -0.00041745 0.1288 0.032659 0.27487 0.32105 0.11337 0.23331 -0.2027 -0.75498 -0.21488 0.11081 -0.12337 -0.68252 0.46154 -0.18431 -0.40732 0.29356 0.18444 0.046945 -0.16625 0.28425 0.098857 0.14131 0.0099858 -0.077743 -0.041674 -0.16059 0.66496 0.3888 0.061784 -0.23028 -0.085093 0.15053 0.50199 -0.060354 0.0078031 -0.10188 0.18607 0.11777 -0.15382 0.1752 0.34421 0.061868 -0.058456 0.19939 0.24807 -0.12043 0.24495 -0.22755 -0.044586 -0.078157 -0.3729 -0.26008 -0.31267 0.465 -0.14188 -0.092598 0.067002 0.2238 0.50371 -0.41528 -0.035387 -1.115 0.10314 0.10069 0.2698 -0.086038 -0.18304 -0.111 0.33949 -0.15439 -0.060346 -0.07603 0.36591 0.07612 0.14184 -0.06635 -0.42175 -0.68802 0.1654 -0.15966 -0.082361 -0.37665 0.15192 -0.15739 0.075572 -0.093941 -0.53344 0.25038 -0.17772 0.56826 0.023024 -0.13049 -0.23437 -0.14206 -0.36676 -0.87881 -0.17991 0.61699 -0.054129 -0.041839 0.44565 0.071349 0.011386 -0.13037 -0.036068 -0.091853 0.28994 0.35194 0.018153 -0.27042 -0.38262 -0.41694 0.088887 -0.38843 0.091897 -0.16549 0.13396 0.12725 -0.30501 -0.089378 0.24039 -0.29861 -0.010235 0.011287 0.039926 0.22518 -0.014535 -0.14116 -0.10092 -0.11393 -0.42583 -0.15182 -0.4183 0.095807 -0.41133 0.30601 0.25951 -0.11851 -0.063935 -0.6816 -0.32533 -0.31124 0.265 -0.1704 -0.13757 -0.13244 -0.073419 -0.079024 0.072515 0.069922 0.29591 -0.32007 0.091738 -0.18087 0.071566 -0.20362 -0.19141 -0.085196 -0.47908 0.064813 -0.21795 -0.094415 0.53729 0.0083135 0.24061 0.045261 -0.081265 -0.038758 0.11975 -0.10087 -0.2278 -0.0663 -0.069051 0.26849 -0.16083 -0.16018 0.26183 -0.54176 0.031235 0.14158 0.14993 -0.31776 0.20251 -0.050593 0.14712 -0.016181 0.065722 -0.076293 -0.36481 0.44407 -0.066691 0.46171 0.039474 -0.44825 -0.40562 0.12919 0.035828 -0.029879 0.025034 0.25427 0.1706 0.23547 0.46183 -0.071739 0.11056 -0.50868 0.15953 -0.19542 0.22428 -0.098993 -0.30309 0.1326 0.15582 0.21946 -0.015946 0.16345 -0.26763 0.042565 -0.094786 0.28878 -0.25244
are -0.19859 -0.062818 -0.36614 -0.41786 0.20962 -0.26728 0.246 0.12783 -0.045845 2.5253 0.35196 0.093547 0.086572 -0.11929 -0.062435 -0.19257 -0.11778 1.4466 -0.59561 -0.077901 -0.31325 -0.16534 0.05263 -0.17153 -0.073093 0.055853 -0.29391 -0.20245 0.078067 -0.079952 -0.15609 -0.065692 -0.05953 -0.024957 0.10387 0.25788 -0.22031 -0.093548 -0.01846 -0.09756 -0.38753 0.25543 -0.13435 0.29886 0.15247 0.037282 -0.031605 -0.33455 0.089668 0.031383 -0.18052 -0.13498 -0.2551 -0.17485 0.069063 -0.20492 -0.090552 -0.015462 -0.27715 0.18137 0.15946 -0.20871 -0.2764 0.32727 -0.057257 0.17983 0.012767 0.38424 0.15904 -0.014411 -0.037496 0.19035 0.83132 -0.049976 0.32581 -0.27539 0.23839 -0.16074 0.31318 0.39318 -0.011906 0.18941 -0.62434 -0.1962 0.084431 -0.31681 -0.19476 0.063256 0.29791 0.0058014 -0.18599 -0.050573 0.22501 -0.08463 0.29137 0.19095 -0.077498 -0.11786 -0.084965 -0.4056 -0.16787 0.26494 -0.092399 -0.063162 0.33635 -0.89221 -0.35094 -0.20511 0.016163 0.42652 -0.23077 -0.22797 0.27599 -0.36401 -0.077786 -0.084522 -0.073139 0.16219 -0.44129 0.30587 -0.088139 -0.013012 0.075655 -0.23323 0.44425 -0.094221 0.55523 -0.15091 -0.10427 -0.19482 0.54779 0.085892 -0.24777 -0.06249 0.32472 0.2996 -0.24348 -0.41019 0.057845 0.34885 -0.71639 0.23031 0.19442 -0.27706 0.20996 -0.12619 0.10679 0.021386 0.35037 -0.13114 0.17483 -0.26907 0.0028734 0.010407 -0.32918 0.19959 -0.3375 0.071719 -0.26644 -0.41965 0.64129 -0.06847 -0.19266 0.038926 0.093084 -0.31762 0.25233 -0.39757 0.13258 0.071091 0.22379 0.15001 0.42411 0.19575 -0.21759 0.026757 0.13422 0.31467 0.34345 0.010293 0.11824 0.45155 -0.3697 -0.13294 -0.35528 -0.17031 -0.019912 -0.10421 0.26896 0.417 0.38751 0.094275 -0.083527 -0.23074 -0.22564 -0.079475 0.11576 0.25639 0.074124 0.38114 0.17028 -0.3204 0.48119 -0.0034888 0.37514 -0.32735 -0.22277 0.27504 0.031611 -0.20505 0.20774 0.21391 0.041449 -0.33708 -0.16771 0.14796 0.12524 0.15517 -0.4561 -0.18143 -0.17103 0.22032 0.17129 -0.013799 0.2858 0.0077815 -0.26555 0.047889 -0.35453 -0.20062 -0.28761 -0.15749 0.23978 0.1443 0.034296 -0.067145 -0.0084247 -0.72342 -0.28056 0.28881 -0.10604 0.32818 -0.34098 0.046492 -0.26373 -0.003864 -0.62803 -0.25992 -0.21455 0.32562 -0.1583 -0.026258 -0.149 0.038496 -0.11265 0.21799 0.21322 0.21233 -0.14936 0.32087 0.47036 -0.030532 -0.32338 0.33519 -0.10904 0.49285 0.26666 0.30611 0.76091 0.13531 -0.50232 -0.23408 -0.39777 -0.15196 -0.046528 -0.21586 0.019041 0.49533 0.18254 0.2171 0.49369 0.31384 -0.23158 0.05532 0.069754 0.10005 -0.087884 -0.13244 0.27741 0.16755 -0.55506 -0.047766 -0.17413 -0.1687 0.089732 0.52814 -0.11219 -0.58451 0.27879 -0.26205
at -0.36769 0.59821 0.13229 0.23506 -0.046757 0.36307 0.14099 -0.10093 -0.15877 2.5371 0.16426 -0.12201 0.21931 -0.59079 0.11269 -0.061433 -0.41994 1.4899 -0.32112 -0.08547 -0.041711 -0.054624 -0.067566 0.16858 0.29859 0.61769 -0.29285 -0.2714 0.2983 -0.0080828 0.45882 0.074601 0.16837 0.85413 -0.49983 -0.12393 -0.286 0.87042 0.18725 0.53559 -0.3193 0.041699 -0.44677 0.20253 0.54033 0.24753 -0.37715 -0.46027 -0.17242 0.25339 0.41274 0.55843 -0.16288 0.15783 -0.15163 0.096857 0.46102 -0.34735 -0.24561 -0.013195 0.14734 -0.12283 -0.11006 0.12155 -0.36222 -0.2134 0.04493 -0.013221 -0.22636 0.27993 0.0012472 -0.50401 -0.073358 0.15364 0.073376 0.47427 0.51482 -0.38231 -0.85774 -0.27755 0.32111 0.19491 -0.044249 -0.12622 0.41194 -0.15178 0.082253 -0.010827 -0.10485 0.021734 -0.43701 0.31045 0.10883 -0.45316 -0.12768 -0.2776 -0.11139 -0.14344 0.27744 -0.090819 0.044911 -0.1489 -0.41634 -0.17551 0.022135 0.52001 0.47983 -0.22133 -0.28094 0.13092 0.15547 -0.63833 0.20613 0.50648 0.017164 -0.58938 0.041948 -0.27061 0.055236 -0.33485 0.16136 0.11801 -0.40701 -0.64496 0.089917 0.03072 -0.3324 -0.17111 -0.24695 0.37055 -0.094538 -0.087253 -0.38874 0.048253 -0.40947 -0.34081 -0.037611 0.65441 0.06848 -0.10165 -0.40389 0.10813 -0.22223 -0.19691 0.28832 0.18378 0.014836 -0.26287 -0.096261 0.10219 -0.17305 -0.49914 -0.3824 0.21818 -0.3686 0.16525 0.0472 -0.10292 -0.041793 -0.181 -0.05939 -0.16045 0.43955 -0.26214 0.28116 0.091289 0.10214 0.25554 -0.19604 -0.13485 0.38587 0.01126 -0.14089 -0.019077 -0.020912 0.2691 -0.19602 0.28619 -0.03627 -0.1657 -0.18118 -0.24443 0.52283 0.11715 -0.0030083 0.43626 0.34315 0.066219 0.94045 0.20832 -0.49127 0.32641 -0.45039 1.8564e-05 -0.41278 0.39304 0.04115 0.59372 -0.48523 0.13174 0.55618 0.25748 -0.074822 0.20806 0.36527 -0.34543 -0.19501 0.10606 0.18489 -0.22234 0.05723 -0.13111 -0.17341 -0.14089 0.049382 -0.082897 -0.16355 0.2996 0.14933 0.39375 0.0024239 -0.21348 -0.39643 -0.36238 0.034257 0.27043 0.10181 -0.025313 0.54133 0.13531 -0.025421 0.46123 0.93227 -0.089559 -0.57502 -0.15075 -0.74333 -0.043592 -0.10689 -0.41813 0.22441 0.18296 -0.090524 0.17857 -0.15199 -0.34919 -0.4393 0.36164 -0.10558 0.45816 -0.028466 -0.088556 -0.23875 -0.089064 0.51101 0.55619 0.18272 0.28141 -0.3125 -0.63815 0.47544 0.52737 0.15876 0.43863 -0.091851 -0.30288 0.095919 0.11125 -0.13932 -0.024902 -0.14601 0.062455 -0.12562 -0.11869 -0.28558 -0.13388 0.64001 -0.093232 -0.30565 0.56926 0.16738 0.13383 -0.069476 -0.18341 0.14278 0.14948 0.27693 -0.01756 0.31911 0.58484 -0.30747 -0.037953 -0.11377 -0.0152 -0.33778 0.28822 -0.15941 0.27228 -0.048367 0.58643
as -0.10648 -0.016295 -0.22755 -0.18934 0.14167 0.27404 -0.028969 -0.3154 -0.4032 2.7085 0.15321 0.15345 -0.085798 -0.17395 -0.0059932 -0.044821 -0.027702 1.0713 -0.31542 -0.25109 -0.31534 0.014133 -0.38718 0.13518 -0.067774 0.34392 -0.2021 0.0017084 0.053716 -0.066964 0.12081 0.21121 0.036278 0.10395 0.13312 -0.29282 0.12094 0.096785 -0.13612 -0.14153 -0.0035055 0.23564 0.044989 -0.0029994 -0.060647 -0.15818 -0.3098 -0.25685 -0.077777 0.10374 -0.032998 0.1671 -0.17314 0.11451 0.066825 -0.00076626 0.021958 -0.028378 -0.14265 -0.24112 0.11367 -0.10256 0.023031 -0.027696 -0.069263 -0.15693 -0.026229 -0.14117 -0.050208 0.072067 0.13692 0.16498 -0.089294 0.08257 -0.12619 0.29701 0.1799 -0.12885 0.15327 0.2022 -0.040822 0.12186 -0.26206 -0.0018238 0.32863 -0.37791 -0.17301 -0.085302 -0.1274 -0.12985 0.099124 0.12756 0.2943 0.17452 0.26084 -0.40348 0.18599 -0.25534 0.035389 -0.37783 -0.11814 0.071124 -0.29684 -0.2138 -0.13155 -0.86324 -0.10318 -0.038374 0.13517 -0.041433 -0.16216 -0.11313 0.087611 -0.11195 0.064373 -0.21678 -0.061492 0.067132 -0.029096 0.0068107 -0.045581 -0.01513 -0.20084 -0.012069 -0.093236 0.20572 0.044586 -0.02084 -0.09629 0.078893 0.023459 -0.06862 0.05913 0.21674 -0.078315 0.21363 0.14314 -0.11269 0.21795 0.13473 -0.96633 0.089384 0.54565 -0.11909 0.026468 -0.015632 0.43335 -0.063477 0.17602 -0.112 -0.050678 0.0974 0.10835 -0.022863 -0.079371 -0.18613 -0.095579 0.096452 0.16985 -0.3172 -0.10339 -0.13775 0.13053 -0.37955 -0.09104 -0.47089 -0.021285 0.13461 0.18898 -0.13175 0.072037 0.10228 0.05289 0.10862 0.0083393 0.0064497 0.062593 0.010614 -0.49213 -0.081617 -0.016147 0.019622 -0.097198 -0.28358 -0.30155 0.011693 -0.15195 0.16121 0.25092 -0.01453 -0.071483 0.068883 -0.021714 0.11604 -0.15646 -0.068977 -0.2163 0.0194 -0.087162 0.23781 0.092504 -0.048853 -0.18378 0.14822 0.20719 0.14652 0.18217 -0.12638 -0.20504 0.202 -0.16742 -0.074659 0.070591 -0.28141 -0.096293 0.30172 0.1946 0.36951 -0.1786 -0.23215 0.043395 0.42423 0.0042782 0.15525 0.045669 0.29934 -0.035877 0.27884 -0.070911 0.1424 -0.33601 -0.036872 0.077823 0.0017128 -0.14294 -0.35338 0.0868 -0.14035 -0.012714 0.075596 0.21089 0.18058 -0.043142 -0.0098158 0.44935 -0.12383 -0.16641 -0.2236 0.15068 -0.11659 0.22787 0.15582 0.01769 -0.019982 0.086623 0.18547 0.28375 0.059658 0.093334 -0.070569 0.39621 0.41797 -0.011218 0.3101 0.020182 0.0067417 -0.035264 -0.39675 0.58749 -0.16479 0.30791 -0.30143 -0.26626 0.022925 -0.16963 0.12999 0.0021843 0.19784 -0.1035 0.33119 0.28959 0.20309 0.22411 -0.1662 -0.044593 -0.26372 0.094942 -0.32548 0.43998 0.13719 -0.15922 0.18396 0.055808 -0.12251 -0.1309 0.1607 -0.061876 -0.31343 0.087424 -0.1661
or -0.22854 0.13904 -0.37115 0.24201 0.50875 -0.12455 -0.031514 -0.46656 -0.16893 2.2826 -0.29895 0.1756 -0.14852 -0.37319 0.0052154 0.032457 0.072854 1.6733 -0.3957 -0.10001 -0.18773 -0.093324 -0.80226 0.2701 0.40855 0.067855 -0.38362 0.17223 0.4211 -0.22281 0.15893 0.047993 -0.10617 0.012976 0.012648 -0.19232 -0.23926 0.091795 0.19178 -0.046868 -0.26742 0.16508 -0.072451 -0.012456 0.096859 -0.012233 -0.15654 0.0026481 0.17132 0.032142 0.18792 -0.12438 0.31193 -0.13584 -0.018311 0.021669 -0.12339 -0.1453 -0.22253 0.078349 -0.109 0.12436 0.23082 0.71035 0.24789 -0.18531 -0.10376 0.018886 -0.38776 0.19042 0.090666 0.24703 0.27671 -0.14196 0.018881 0.086529 0.068922 -0.019543 0.27126 0.30785 -0.28851 -0.3986 -0.27764 -0.10818 -0.016699 -0.16184 0.31986 0.088512 0.37915 -0.27529 -0.37418 -0.11502 0.23119 -0.21549 -0.36715 0.16354 -0.17582 0.32173 0.36903 -0.15697 0.050455 0.15741 0.041114 0.070337 0.46588 -0.94021 -0.24658 0.2331 0.14904 0.24539 0.11504 -0.21734 0.14412 0.047782 -0.10107 -0.23504 0.33506 0.060613 0.020328 0.4086 0.023061 0.3286 0.17532 0.052919 -0.12279 0.071015 0.11157 0.38368 -0.072763 0.32115 -0.096534 -0.35844 -0.21975 0.099189 0.053341 0.0085953 0.31679 -0.22131 -0.087151 -0.0040459 -0.8862 -0.052589 0.19679 -0.13449 -0.090891 -0.024571 0.59027 -0.1826 0.063327 -0.09815 0.41729 0.2854 0.34814 0.2399 -0.38086 -0.10205 -0.18944 0.0023565 0.1286 0.1242 0.25472 -0.36234 -0.10265 0.13714 -0.0027166 -0.506 -0.029931 0.19607 0.089851 -0.098398 -0.21825 0.026276 0.44737 0.004426 -0.037335 0.093334 -0.047934 -0.37959 0.13242 -0.32313 0.045609 -0.14564 -0.19986 -0.32757 -0.24032 0.52407 -0.26894 0.10947 0.57138 -0.0077895 -0.13175 0.082677 0.042443 0.043184 -0.017204 0.63405 -0.3785 -0.14045 -0.043216 0.45922 0.1449 -0.00010565 -0.051764 -0.18333 0.39177 0.28297 0.051267 -0.22082 0.22612 0.338 -0.014837 0.3289 0.13278 -0.24453 -0.054686 0.25684 -0.29223 0.35636 -0.53996 0.062708 0.19767 -0.069938 -0.17488 -0.21817 -0.11804 -0.22615 0.061596 0.23165 -0.16013 -0.056177 -0.46339 0.031694 0.67777 0.6648 0.13919 0.0013739 0.25985 -0.13714 -0.011379 0.053541 -0.0036957 0.19996 0.022878 0.23155 0.3066 -0.34368 0.025273 0.1124 -0.33698 -0.28854 0.42664 0.061196 -0.0038354 -0.042622 -0.19402 0.48681 0.027596 -0.75093 0.23933 0.38086 -0.01341 0.082722 0.070815 0.048357 0.40754 0.54086 -0.17446 -0.045842 0.66769 -0.3228 0.68957 0.018762 0.22219 0.15273 -0.27479 0.23031 0.027178 0.15669 -0.17202 -0.12398 0.42496 0.14296 0.65186 -0.24046 0.21473 0.25101 0.21498 0.12994 0.28405 -0.12543 -0.20252 -0.015131 0.18514 -0.21265 -0.35563 0.32718 -0.22632 -0.43012 0.31765 0.1462
not -0.04983 0.02705 -0.38787 -0.25857 -0.019577 -0.046789 0.28764 -0.25563 -0.14337 2.8104 -0.0052332 0.040908 0.086203 0.0083425 -0.3447 -0.20269 -0.15394 1.1451 -0.2874 0.31633 -0.043195 -0.20848 0.018963 0.011215 -0.13868 0.095678 -0.37071 -0.23438 0.16899 -0.1445 -0.24882 0.003942 -0.023519 -0.037867 -0.19821 -0.058004 -0.018698 -0.051318 -0.12513 -0.092768 0.076318 0.3473 0.19565 0.10157 0.10805 0.038065 -0.06757 -0.17759 0.027277 0.10747 -0.43786 -0.043463 -0.090038 -0.11718 0.44626 0.10578 -0.10368 -0.4518 -0.03893 -0.10482 -0.055324 -0.30017 -0.094835 0.29518 0.1063 -0.037419 -0.13346 -0.094955 0.17721 0.011537 0.18141 0.23897 0.15566 -0.21294 0.20864 0.011149 -0.016061 -0.039162 0.18466 0.52838 -0.01167 -0.097992 -0.39746 -0.04526 0.088073 -0.38468 0.32909 -0.48774 0.47898 -0.14915 -0.33619 -0.011074 -0.25446 0.22186 0.27908 -0.19377 0.10935 -0.12359 0.18138 0.0054908 -0.065461 0.31657 -0.15914 -0.12485 0.24755 -1.1199 -0.22086 0.10682 0.037343 0.27176 -0.20963 -0.081427 -0.046002 -0.32776 0.022564 -0.18015 0.25811 -0.25556 -0.16467 -0.0905 -0.12548 0.14816 0.19352 -0.11602 -0.013502 0.013712 0.00099027 -0.68036 -0.069273 -0.060924 0.17024 -0.025483 -0.26621 -0.010625 0.0086921 0.044738 0.15685 -0.34682 0.09379 -0.19822 -1.2293 0.25126 0.37666 -0.034731 0.19878 -0.10144 0.044016 -0.16122 0.028975 -0.052773 0.24556 0.10868 -0.038647 0.21689 -0.026594 -0.18587 -0.27353 -0.18709 -0.093365 -0.017905 -0.085821 -0.098515 -0.070971 0.11615 -0.10819 -0.14019 0.071081 -0.18469 0.18881 -0.022614 0.11282 -0.11303 0.27997 -0.20154 0.17709 0.43365 0.22193 0.010922 -0.00090116 -0.023786 -0.024259 0.046858 -0.26261 -0.18016 -0.37123 0.03282 -0.12354 0.072563 0.26452 -0.02351 -0.018872 0.12683 -0.45364 0.059881 0.11362 0.09751 -0.072594 -0.11976 0.45824 0.42577 -0.031326 0.10294 -0.096147 -0.014582 0.23025 0.19911 -0.084175 -0.051044 0.33292 0.15768 0.074391 0.18989 0.16439 -0.34959 0.14126 0.065277 -0.18248 0.16694 -0.47675 -0.10721 0.078581 0.14303 -0.088569 -0.021546 0.15986 0.10505 -0.015615 0.065228 -0.13061 -0.075304 -0.16896 -0.015108 0.28748 0.18529 -0.048091 -0.098954 0.1226 -0.5042 -0.26704 0.072267 0.17241 0.077059 0.041611 0.26111 0.0038525 -0.40384 -0.11349 -0.10657 -0.23802 0.26293 -0.0054692 0.07821 -0.2561 -0.20714 -0.083626 0.12877 -0.023937 -0.25092 0.11987 0.14449 0.301 0.23678 0.038255 0.36099 0.036983 0.38049 0.24736 0.32123 0.71396 0.00018868 0.30268 -0.0091648 -0.082939 -0.24529 0.074714 0.15565 0.0049746 0.10614 -0.050173 0.28089 0.32046 0.036223 0.3546 -0.0046792 -0.31079 -0.04823 -0.17378 0.11647 0.36891 -0.066626 -0.33058 0.013051 -0.21748 -0.3322 0.26679 0.20888 -0.2785 -0.30358 0.27075 0.18046
but -0.01689 0.17402 -0.30247 -0.30063 0.21415 0.063863 0.10107 -0.24155 -0.095228 2.9253 -0.0056759 0.11752 0.16121 0.020813 -0.083593 -0.14048 -0.040069 0.75133 -0.056699 -0.096198 -0.072134 -0.031287 0.18146 -0.24846 -0.065068 0.066374 -0.12173 -0.13479 0.26163 -0.21599 -0.24221 0.091074 -0.043504 -0.18047 -0.18158 -0.066229 0.02648 -0.25439 -0.078805 -0.21853 -0.030239 0.13049 0.10992 0.035563 0.32769 -0.02775 -0.18852 -0.18579 -0.085064 -0.024057 -0.14141 0.12708 -0.079024 -0.1332 0.037619 -0.1108 -0.22742 -0.27703 -0.08176 0.047761 -0.17936 -0.31907 0.13931 0.36374 -0.21399 -0.27044 -0.20847 0.011192 0.16017 0.24218 0.25058 0.32767 0.1334 0.006451 0.017994 0.11242 0.090136 -0.072882 -0.16506 0.483 0.0046465 -0.048611 0.027421 0.097357 0.10873 -0.31722 0.26092 -0.59396 0.26522 0.072456 -0.19246 0.034932 -0.15662 0.30779 0.33744 -0.0048664 0.15165 -0.019861 -0.14789 -0.017031 -0.17279 -0.038278 -0.3256 -0.1645 0.22257 -1.2442 -0.14105 0.074932 -0.18879 -0.10341 -0.0036646 -0.21667 0.035087 -0.19168 -0.10044 -0.0028554 0.056079 -0.074098 -0.0083292 -0.23693 0.041375 0.069771 0.20383 -0.18666 -0.042077 0.13305 -0.045272 -0.29631 0.16454 -0.11591 0.024631 -0.061717 -0.062958 0.13487 0.20565 0.014678 0.19056 -0.32541 0.10896 -0.091117 -1.8126 0.35567 0.5444 -0.035205 -0.027339 -0.1075 -0.3094 0.12539 0.087296 0.082909 -0.079026 -0.018092 0.26749 0.011947 -0.1309 -0.33304 -0.20343 -0.2802 -0.10974 -0.29613 -0.13973 0.18934 0.035228 -0.25916 -0.26859 -0.22678 0.13141 0.051456 0.26723 -0.18335 -0.0751 -0.016394 -0.099408 -0.18685 -0.14718 0.064933 -0.13858 -0.19941 -0.083017 -0.17141 0.014692 -0.24256 -0.2701 -0.085571 -0.17614 -0.17786 -0.013418 -0.14634 0.30529 0.060719 0.28651 0.14169 -0.19963 0.13507 0.07059 -0.042919 -0.070586 -0.35384 0.13877 0.24022 -0.030725 0.041167 -0.22029 -0.11796 0.11195 0.20739 -0.16588 -0.14708 0.097583 0.20831 -0.12357 -0.079109 -0.077406 -0.34475 0.29539 0.014243 0.07582 -0.019915 -0.1628 0.019031 0.25743 0.12232 -0.082438 0.061687 0.21967 0.2237 -0.094008 0.15609 0.0016797 0.18566 -0.26615 -0.10925 0.36341 0.10227 0.16318 -0.15906 0.027914 -0.097719 0.02167 0.1373 0.31447 0.016585 -0.32731 0.41633 0.1838 -0.22986 -0.12125 -0.15239 -0.01333 0.1581 0.32326 -0.07678 -0.12008 -0.11215 -0.050701 0.11711 0.14279 -0.12161 -0.015066 -0.076299 0.22693 0.17511 0.023596 0.14218 0.2125 0.21344 -0.06856 0.063065 0.55161 0.26941 0.17143 -0.19773 0.030509 -0.37473 -0.23374 0.19453 0.0023319 0.0052309 0.16025 0.508 0.30588 0.026994 0.11541 -0.079795 -0.099845 -0.031527 0.093683 0.01085 0.38706 -0.26888 -0.40783 -0.0016802 0.015798 0.035886 0.11664 0.023909 -0.053473 -0.3264 0.17957 0.11095
they -0.13889 0.10991 -0.20471 -0.32585 0.0072488 -0.18585 0.071382 0.0064174 -0.2451 3.2363 0.06486 0.12279 0.28262 0.10002 -0.31539 -0.0020353 -0.15178 0.83804 -0.3674 -0.13922 0.40432 0.083917 0.21918 0.099061 -0.29611 0.0010845 -0.45575 -0.29909 0.18836 -0.28977 -0.17168 0.064281 -0.23081 0.095689 -0.012071 0.059607 0.074603 0.07375 -0.046136 0.031992 -0.20842 0.2138 0.08876 -0.031112 0.24371 -0.25099 -0.38857 -0.18414 0.018954 0.18189 -0.28995 -0.095297 -0.055505 0.023616 0.31819 -0.12101 -0.2147 -0.033373 -0.11707 0.29709 0.11096 -0.23476 0.089461 0.27219 -0.027263 0.29837 0.08615 0.051812 0.4638 0.0028749 0.12814 0.45991 0.61379 -0.12548 0.21734 -0.17174 0.41066 -0.26742 0.19446 0.34837 -0.0051026 0.12219 -0.43064 -0.18424 0.062563 -0.26624 -0.048074 -0.39405 0.22134 0.18089 -0.15659 -0.33222 0.02865 0.16633 0.24621 0.12019 0.063817 -0.26078 -0.17423 -0.072339 -0.10341 0.22194 -0.078576 -0.087314 0.061531 -1.4348 0.013784 -0.18698 -0.13563 0.26694 0.085879 -0.10905 0.16663 -0.26553 0.32013 -0.095065 0.23121 -0.003214 -0.28672 0.027161 0.26622 -0.098754 0.089277 -0.016633 0.14574 -0.15384 0.26566 -0.1357 -0.067895 -0.12941 0.30975 0.12711 -0.27423 0.070756 0.22321 0.10327 -0.080503 -0.27335 0.0041857 0.041788 -1.8867 0.18194 0.25236 -0.17951 0.26528 -0.20088 -0.14737 0.18485 -0.073954 -0.35354 0.012416 -0.069078 0.040227 0.10301 -0.13887 -0.11257 -0.38223 -0.24845 -0.10032 0.094761 0.040833 0.011882 0.096953 -0.18512 -0.16027 -0.029833 0.20044 -0.36733 0.23548 0.11959 0.082744 -0.045926 0.025648 -0.062472 -0.052771 0.019738 -0.13851 0.31261 0.089545 -0.23647 0.059771 0.14708 -0.21329 -0.11398 -0.14544 0.035631 -0.19409 -0.040119 0.28473 0.23793 0.59395 0.010229 -0.082816 0.064615 8.4798e-05 0.029775 -0.036774 -0.077402 0.13955 0.34747 0.21302 -0.11656 0.28533 -0.25595 0.41896 0.017731 -0.20979 -0.099501 0.35289 0.1971 0.17018 -0.024968 -0.22315 -0.012945 0.16177 -0.058289 0.10333 -0.16634 -0.36373 0.037628 0.1775 -0.063925 -0.14744 -0.17872 0.050801 0.1596 -0.17927 0.25738 -0.19361 -0.040142 -0.04835 -0.13179 0.20884 0.11013 0.1662 0.0033768 0.041838 -0.43821 -0.15963 0.050125 -0.0045204 0.10649 -0.11211 0.17931 0.053717 -0.29824 -0.36749 -0.16155 -0.41892 0.42866 -0.0052927 -0.11969 -0.24216 -0.041711 0.10713 0.07988 -0.10549 0.14579 -0.10862 0.096344 0.36354 0.15638 -0.074517 0.20099 0.28383 0.41698 0.019294 0.1638 0.35689 0.52284 0.18299 -0.050375 -0.039848 -0.18264 -0.26222 -0.0057065 -0.22139 0.39527 0.12648 0.42271 0.21285 0.044532 0.071204 0.03405 -0.18815 0.020824 0.19594 -0.015026 0.18688 0.12417 -0.55768 -0.0071752 -0.20905 -0.025807 0.035054 -0.035465 -0.23574 -0.083825 0.49241 -0.045157
about -0.23365 0.72915 -0.32268 0.10265 0.097069 0.26378 -0.11787 0.2242 0.13761 2.5132 -0.24187 -0.033395 0.053606 -0.20693 -0.49991 -0.10281 -0.1358 0.63439 -0.41981 -0.4445 0.40104 -0.01223 0.013787 0.045877 0.12903 -0.23137 -0.047404 0.1535 0.14786 -0.30909 0.080865 0.34524 0.092811 0.093254 0.30381 -0.069964 -0.28352 0.32062 -0.028347 0.14437 0.058551 0.19101 -0.35737 -0.016893 0.14724 0.34683 -0.31645 -0.17592 0.10068 -0.24083 -0.55202 0.05662 -0.22414 -0.29119 -0.013252 -0.038021 -0.072205 -0.1118 0.095104 0.11765 0.35373 -0.21498 -0.2096 0.3903 0.073573 -0.65524 -0.023857 0.44775 -0.36403 0.17396 -0.069853 -0.23164 0.45127 0.16189 0.62457 0.37666 0.12862 -0.27648 0.051071 0.22013 0.36354 0.018207 -0.16525 -0.13361 -0.032025 -0.27609 -0.67497 -0.6103 0.44466 0.25855 -0.36765 -0.34775 -0.4113 -0.17961 -0.14843 0.069513 -0.32662 -0.011454 0.13232 -0.47187 0.12947 -0.019676 -0.18904 -0.24449 0.27926 -0.56272 0.027026 0.079741 -0.079456 -0.11585 0.12509 -0.33801 0.24562 0.2098 -0.080678 -0.2654 -0.45732 -0.075925 0.36798 0.12611 0.26979 -0.44165 -0.15739 -0.26736 0.54204 0.13597 -0.33115 -0.25162 0.21895 -0.37249 -0.22208 -0.031372 -0.21314 -0.09768 0.14355 -0.27166 -0.084859 0.47425 0.095865 0.10472 -1.4395 -0.25779 -0.042117 0.34489 -0.33694 -0.010532 -0.2651 0.37266 0.012467 0.022639 0.29379 -0.20039 -0.021733 -0.50064 -0.42929 0.20032 0.28717 -0.23935 -0.15378 -0.073318 -0.15389 -0.11059 -0.24538 -0.14515 -0.032676 0.29802 -0.0017268 -0.2197 0.077918 -0.15888 -0.13494 0.018054 0.30364 -0.13565 -0.28485 0.047053 -0.0053989 0.27997 0.53074 -0.12546 0.20377 -0.26421 0.12669 -0.13225 -0.0030167 -0.0064416 -0.048293 0.019329 0.085869 0.40842 0.25965 -0.050458 -0.34948 0.21275 -0.28479 0.025267 0.49408 0.073052 -0.11483 0.08645 0.51028 -0.19598 -0.11786 -0.18703 -0.058678 0.18724 0.37104 0.056816 0.034961 0.065072 -0.37826 -0.25035 0.025876 -0.42614 -0.060101 0.27154 -0.23401 0.18142 0.060353 -0.084387 0.30489 0.32442 0.039268 -0.098768 -0.26484 -0.19108 0.020264 -0.1461 -0.050936 -0.11686 -0.088839 0.26429 0.31467 0.0053299 0.10126 0.07066 -0.019287 0.25941 -0.20396 0.28528 0.19535 -0.093914 0.081325 -0.15728 0.056421 0.12892 -0.049362 0.0041448 -0.19369 -0.2675 0.17362 -0.36052 0.2704 -0.060174 0.027607 0.41602 -0.044364 -0.21985 0.070874 -0.077737 0.39411 0.2019 0.19058 0.39497 0.33766 -0.28725 -0.056121 0.22279 0.47983 -0.058882 0.24774 0.01362 -0.35964 -0.44914 -0.21214 0.093784 0.16939 -0.21674 -0.17643 -0.087987 -0.011255 0.4602 0.26943 -0.17445 -0.06749 -0.0705 0.076087 -0.15343 -0.24393 0.18928 -0.052297 0.075055 0.050848 -0.10537 0.089339 0.06535 -0.36491 0.11614 0.094537 0.2698
me -0.15396 0.31894 -0.54888 0.25575 0.25812 -0.24498 -0.0075256 -0.44586 -0.3331 2.5371 -0.30797 0.32259 0.15141 -0.469 -0.2988 -0.006712 -0.15408 0.82595 -0.090429 0.095433 0.37679 0.02381 -0.2335 0.2651 -0.10142 0.013369 0.18771 -0.030711 0.35253 -0.52993 0.032665 0.46994 -0.29181 -0.053454 0.01564 -0.035972 -0.025803 0.027286 -0.066553 -0.37466 -0.31585 -0.044513 -0.3127 -0.13976 0.22966 0.39333 -0.17182 -0.043639 0.17291 0.20719 -0.092617 0.18868 0.096837 0.023362 0.15004 0.30582 -0.44929 -0.083601 -0.038335 -0.04114 -0.37771 -0.087132 -0.24334 0.19499 0.34166 -0.14412 0.037503 -0.051979 -0.11018 0.40829 -0.060759 0.016646 0.219 0.087433 0.17823 0.36771 0.60577 -0.34947 -0.15639 0.46658 0.0014459 -0.085848 -0.39846 -0.013264 0.13744 -0.30367 0.42076 -0.77487 0.61946 -0.091566 -0.34035 -0.12057 -0.15843 -0.0040369 0.047313 0.42598 0.18908 -0.31651 -0.071239 0.13189 -0.060507 0.047623 -0.065324 -0.16438 0.2452 -0.39248 0.30636 0.15885 -0.20593 0.078804 0.32173 -0.4134 0.57167 0.089288 0.13494 -0.25182 -0.1075 -0.26265 0.41145 0.040077 0.34868 -0.41758 0.0026607 0.18864 0.31739 -0.037066 0.0047874 -0.035659 -0.013064 0.061671 -0.081892 -0.14293 -0.38927 0.019965 0.13261 -0.019291 -0.035979 0.40344 -0.27053 -0.13914 -2.7504 0.2219 0.002595 0.038409 0.00047943 0.042848 -0.15918 0.27683 -0.72232 -0.2088 0.1041 0.34372 0.21924 -0.14944 0.011549 -0.077707 -0.017796 -0.15402 0.11486 -0.35102 -0.29005 0.069873 0.13258 -0.094058 0.093709 0.054738 -0.018868 0.071811 -0.034275 0.13996 -0.27488 -0.39626 0.41488 -0.44789 0.0024048 0.16817 -0.075884 -0.19818 -0.28461 0.018548 0.077935 -0.079466 0.19185 0.0081991 0.46121 -0.1263 -0.37604 -0.031227 0.24897 0.19553 0.25801 -0.33281 -0.31303 -0.22802 0.01257 0.2856 0.063252 -0.31073 0.32407 0.13186 -0.19087 0.35195 -0.50917 -0.030888 0.020958 0.26458 0.50711 0.06341 0.052963 0.13797 -0.096061 -0.45935 -0.0096708 -0.15591 0.10447 0.29636 -0.050042 -0.10892 -0.065754 0.20289 -0.08521 0.34053 -0.22064 0.28591 0.16588 0.14755 -0.077477 0.11453 -0.1596 -0.3166 -0.59842 -0.070888 0.12268 0.078458 0.049465 -0.25338 0.14353 0.040625 -0.013864 0.31302 0.15877 0.35475 -0.050796 0.3466 0.26806 -0.33184 0.11977 0.03678 -0.057687 0.41657 0.15703 -0.33583 -0.24809 0.29382 0.19421 0.31912 0.098237 -0.30203 0.017137 0.18071 -0.11427 0.50143 -0.075831 -0.10783 0.29156 -0.10767 0.26931 0.2547 0.19744 0.036557 0.42576 0.15912 -0.0010908 -0.15813 -0.12099 0.32691 0.059496 -0.44812 0.1487 0.34124 -0.14872 -0.085174 0.033216 -0.3524 -0.32374 -0.2107 0.65789 -0.36495 -0.093276 -0.13541 -0.081115 -0.093947 0.20903 0.19237 0.46931 -0.13735 0.20371 0.19787 0.0059997 0.0069986
A -0.20996 -0.15577 -0.37736 0.22892 -0.14712 -0.41782 -0.19491 0.061021 0.057944 0.79813 -0.49189 0.026116 0.16173 0.28898 -0.0026319 -0.1842 -0.087295 1.8144 -0.14008 0.23612 -0.0075722 -0.44965 -0.089656 0.27359 0.20097 -0.0072507 0.085632 -0.025656 0.074721 -0.46209 -0.072882 -0.16263 0.43647 -0.22789 0.68795 0.052565 0.69874 -0.2612 -0.20619 -0.56306 0.67343 0.73758 0.56451 -0.062426 0.17391 -0.43643 -0.28697 -0.43337 -0.0049453 0.15617 -0.34879 0.37111 0.11258 0.25172 -0.031563 0.30049 0.44813 -0.015333 0.16217 -0.48068 0.072301 0.61309 0.34949 0.21502 -0.072819 -0.21604 -0.0075218 0.27666 -0.067807 0.80486 -0.069778 -0.01935 -0.080579 -0.014039 -0.1727 -0.3649 0.033739 -0.40203 -0.42697 -0.15293 -0.27655 -0.015369 0.23901 -0.31599 -0.029107 -0.21087 -0.96182 -0.64057 0.19498 -0.018121 0.031116 0.54894 -0.3012 -0.51079 -0.35858 0.28914 -0.00024464 0.13136 0.33373 0.10972 -0.38792 0.10509 -0.096306 -0.3038 -0.52376 1.2378 0.12279 -0.078918 -0.12906 -0.29315 0.50429 0.46874 0.34198 0.2086 -0.20838 0.13765 -0.3963 0.18899 0.021267 0.27989 0.081349 -0.10532 -0.16893 -0.19626 0.34535 0.075704 0.16554 0.23067 -0.78467 0.33482 0.18541 0.021629 0.24324 0.16439 -0.2048 0.31068 -0.29248 -0.35154 0.28416 -0.36905 -0.68219 0.40374 0.094617 0.2102 -0.20161 -0.56048 -0.1986 0.01027 0.5389 -0.12267 0.05936 0.55474 -0.31224 0.48796 -0.12043 0.46766 -0.12938 0.40088 0.019864 -0.29511 -0.25855 -0.07466 0.2859 0.31425 0.00608 -0.21354 -0.021682 0.00071712 0.14667 0.16867 0.22643 -0.064471 0.37709 -0.55989 0.080315 -0.3804 0.41056 0.24063 0.24484 -0.084154 -0.3352 -0.20211 0.3168 -0.21769 -0.087743 -0.29136 -0.38373 0.31967 -0.21597 -0.63323 -0.55495 0.238 -0.1738 0.15924 -0.019654 -0.23382 -0.41693 -0.027608 -0.4692 -0.18673 0.080305 0.18432 -0.27526 -0.11773 -0.078136 4.4391e-05 0.075786 -0.11134 -0.028653 -0.066874 -0.10825 0.33274 -0.53809 0.084754 0.24742 0.49225 -0.61612 -0.073305 0.036984 -0.47666 0.3876 -0.11847 -0.18543 0.26648 0.0301 -0.091692 -0.089048 0.5974 -0.34772 0.042589 0.35159 0.54349 0.039836 -0.13209 -0.1168 -0.17365 0.27153 -0.24718 -0.29161 0.3776 -0.18952 -0.19703 0.46173 -0.38895 -0.13167 0.41821 0.18999 -0.42373 0.14842 -0.022686 -0.17622 -0.42518 0.2635 0.27572 0.021108 0.2242 0.33604 -0.62737 0.14957 0.11675 -0.14058 0.27587 0.48029 0.15128 0.16701 -0.22638 0.50567 0.31768 0.25475 -0.39161 -0.42438 -0.17821 -0.17495 -0.57828 -0.086497 -0.22157 -0.45225 -0.10178 0.47447 0.42666 0.32293 0.18973 -0.13945 0.24426 -0.30392 -0.26029 -0.15535 -0.22362 0.043117 -0.14086 -0.064447 -0.06453 -0.29109 -0.049615 0.21072 0.34463 0.4123 -0.55673 0.00072776 0.065055
there 0.16718 0.30593 -0.13682 -0.27179 0.22494 0.11855 0.069228 -0.081933 0.078354 2.8553 -0.084444 0.057946 0.21249 0.12268 -0.30578 -0.025171 0.0027529 1.0327 -0.19118 -0.032428 0.10935 0.15354 0.043471 0.10282 -0.022008 -0.062099 -0.025723 -0.07667 0.14264 -0.10663 0.0059448 0.26423 0.093877 -0.16867 -0.015693 -0.030664 0.16906 0.22954 -0.055239 -0.051801 -0.34073 0.067111 0.055456 0.025392 0.21917 0.30893 -0.1363 -0.14553 0.10193 -0.20006 0.024337 0.18095 -0.13781 0.11966 0.20271 -0.26454 -0.051638 -0.20454 -0.044549 0.07279 -0.11837 -0.29324 -0.064725 0.25816 -0.25505 0.013436 0.11135 0.077714 -0.026179 0.22411 0.31049 0.094629 0.57761 -0.02305 0.42565 0.03315 0.11517 -0.075313 -0.084959 0.49754 0.13151 0.070701 -0.11973 -0.022745 -0.11211 -0.19322 0.066303 -0.59609 0.2694 0.17682 -0.17318 -0.23782 -0.28258 -0.13954 0.36863 0.014302 -0.054148 -0.090648 0.09745 0.14001 -0.3312 0.0052766 -0.10071 -0.075194 0.30374 -1.1495 0.073639 -0.062584 -0.36221 -0.0288 0.0011995 -0.12086 0.061833 0.053692 0.0055185 0.090765 -0.15924 0.17496 -0.24187 -0.23805 0.053918 -0.17221 0.011025 -0.30971 0.095604 -0.058646 -0.016271 -0.30739 0.15342 -0.059237 0.21296 -0.1003 -0.042573 -0.092563 0.44815 -0.0041257 0.039191 -0.22113 -0.016595 -0.006374 -1.7394 0.24507 0.24023 -0.024854 0.14197 0.055515 -0.23286 0.050072 -0.083607 -0.035501 -0.20193 -0.16662 0.19013 -0.17517 -0.15257 -0.0045582 0.13334 -0.03011 -0.094176 -0.081618 -0.22061 0.022761 0.06369 -0.26189 -0.098947 0.025197 -0.047173 -0.090709 0.29576 0.0532 0.032581 0.20466 0.020723 -0.19963 -0.30415 0.28767 -0.24487 0.10729 0.25708 -0.18706 0.14949 0.115 -0.011111 0.040663 -0.12636 -0.17942 -0.060845 -0.11622 0.34564 0.02925 0.20681 0.046554 -0.38483 -0.045972 0.051905 0.071988 0.02499 0.05144 -0.02294 0.43654 -0.082256 0.06569 -0.064199 -0.20693 0.20833 0.10972 0.026637 -0.21754 -0.10761 -0.023384 -0.12083 -0.17369 -0.041438 -0.20263 -0.023234 -0.19631 -0.30606 -0.019002 -0.16908 0.14169 0.14305 -0.11813 0.089116 0.016575 0.15461 0.0095624 -0.060511 -0.0060303 -0.1575 -0.18396 -0.14639 0.20578 0.21944 0.021212 0.208 0.23331 0.25435 -0.21719 -0.18341 0.23705 0.054291 0.42502 -0.056083 0.33647 0.065887 -0.091169 0.045521 0.035009 -0.20424 0.23396 0.18183 -0.27898 0.12569 0.04489 -0.14084 0.42328 0.051515 -0.15185 0.079219 0.1157 0.23337 0.019341 -0.18195 0.19274 -0.044475 0.095615 0.25617 0.12169 0.56746 0.20579 -0.13647 0.12812 -0.020761 -0.39019 -0.12725 0.20302 0.044574 0.022677 -0.034274 0.32097 0.39092 0.1021 -0.21004 -0.24229 0.063313 -0.15174 0.1382 0.077999 0.0505 -0.093611 -0.39965 0.018736 0.041738 -0.091998 0.00064355 -0.077316 -0.088075 -0.035268 0.1281 0.023683
were -0.20639 -0.11403 -0.11346 -0.51219 -0.14021 -0.10165 0.13767 0.12853 -0.10379 3.2183 0.64208 0.14196 0.53153 -0.17997 -0.1672 -0.35321 -0.10575 0.61479 -0.65832 -0.26973 -0.0073067 -0.3092 0.060785 0.064162 0.087576 -0.21753 -0.34784 0.039401 -0.0698 -0.1002 -0.1128 -0.23994 0.063159 -0.059592 -0.077022 0.0011921 -0.48143 -0.052451 -0.257 0.045792 -0.31677 0.31309 0.097317 0.23557 0.37963 -0.053378 -0.077918 -0.32619 0.43438 -0.061769 -0.16382 -0.40229 -0.2871 0.013968 0.10007 -0.22246 -0.14803 -0.20477 -0.20572 0.29529 0.2846 -0.041072 -0.10117 0.49282 -0.45319 0.56899 0.33705 0.061844 0.12987 0.078422 0.1244 0.64374 0.64365 0.15344 0.60833 -0.66527 0.22356 0.10144 0.064851 0.22488 0.03401 0.19643 -0.23686 -0.41919 -0.050282 -0.28923 0.022375 -0.34755 -0.31816 0.33596 -0.039056 -0.22447 0.036688 0.014899 0.57572 -0.20179 0.37375 0.084365 -0.051372 -0.33291 -0.23647 0.51968 -0.059195 -0.31943 0.16441 -1.0243 -0.29021 -0.23586 0.25865 0.15882 -0.046522 -0.27279 0.24837 -0.24086 -0.0082728 -0.32331 0.18959 0.32089 -0.35273 0.099222 0.22778 0.18277 0.14166 -0.26083 0.015892 -0.11052 0.43576 -0.24432 -0.3968 -0.055204 0.48216 0.20399 -0.48895 -0.10742 0.56139 -0.002963 0.033356 0.10663 0.066209 0.25669 -1.1039 0.11515 0.20749 -0.35604 0.40788 -0.00042853 -0.44797 0.034876 0.22067 -0.22158 0.029067 -0.28726 0.20784 -0.23512 -0.57951 -0.064536 -0.26315 0.2926 0.31917 -0.40119 0.10255 -0.36274 -0.0137 -0.41615 -0.4516 -0.38345 -0.04865 -0.18147 0.33403 0.2463 0.37403 0.26412 0.21937 0.20851 -0.43142 -0.27766 0.10062 0.28849 0.072925 -0.66604 -0.15886 0.089882 -0.41051 0.035259 -0.36606 -0.13779 -0.10304 0.21894 0.53625 0.32323 0.58778 0.28476 -0.20345 0.053051 -0.2262 0.046899 0.31899 -0.097708 -0.30146 -0.12368 0.20904 -0.2783 0.41303 -0.0085902 0.42604 -0.083682 0.016468 0.10575 0.097857 -0.075078 0.43823 0.11228 -0.0095824 -0.071239 0.067065 -0.081635 -0.025443 -0.20491 0.013279 0.045064 -0.093765 0.22372 -0.11277 0.23431 -0.20049 0.29066 -0.34295 -0.010541 -0.23358 -0.062863 -0.073983 -0.0025195 0.13541 -0.031783 0.43208 -0.15124 -0.0083486 -0.3217 0.17532 0.062589 -0.5831 0.14212 -0.12036 0.21277 -0.11002 0.2517 -0.45167 -0.41675 -0.26827 0.26428 -0.31959 0.21263 -0.15574 0.12476 0.3648 -0.093595 0.3203 0.33587 -0.25731 0.35335 0.48316 0.18363 -0.74654 0.3678 0.065895 0.55311 0.53375 0.33589 0.0042671 0.14916 -0.054548 0.11279 -0.14726 -0.25603 -0.29445 -0.22145 -0.063011 0.031078 -0.072578 0.19826 0.47803 0.53433 -0.19331 -0.0039135 0.16361 0.096309 -0.11957 0.21048 -0.031686 0.35206 -0.76401 0.0064377 0.50179 0.15244 0.17582 0.1911 -0.1076 -0.2082 0.307 -0.25052
first 0.2998 0.23987 -0.15863 0.054267 0.28453 -0.11296 -0.0020817 -0.061582 0.2244 2.5597 0.027427 0.086051 0.43584 -0.044009 0.22448 -0.022248 0.053003 0.92093 -0.039805 -0.16715 0.13939 -0.35085 0.21131 0.085426 0.17606 0.21192 0.083822 -0.29071 -0.26153 0.14087 -0.084425 0.059166 0.44676 0.23916 0.038584 0.13736 0.22857 -0.18653 0.10597 -0.6077 0.11646 0.3422 -0.15167 -0.20815 -0.20682 0.075768 -0.11201 0.11622 0.39126 -0.073767 -0.090326 0.0087854 0.05683 0.17018 -0.2106 -0.15838 0.24365 -0.023448 -0.052993 -0.40113 0.043045 0.10369 -0.04968 0.57749 0.099425 0.02125 0.18042 -0.070611 0.20381 0.39378 0.41538 -0.057201 -0.31406 0.022916 0.055974 -0.13143 -0.087702 -0.41342 0.032845 0.27073 0.15075 0.22883 -0.23357 0.0036961 0.076609 -0.34748 -0.47691 -0.25 -0.073139 0.18822 -0.12522 0.32601 -0.092762 -0.26292 -0.14695 -0.044904 0.45417 -0.06621 0.39717 0.14412 0.16709 -0.36444 0.080936 -0.065099 -0.33946 -0.6153 0.1013 -0.12229 -0.21496 -0.1604 0.068308 -0.073175 0.097402 0.021887 -0.11578 -0.14931 -0.055777 0.40237 -0.28773 0.27332 0.16649 -0.15956 0.10508 0.02958 0.1128 0.096015 -0.021786 -0.15993 -0.01191 0.0079436 -0.10398 0.011568 0.15329 0.1814 0.14207 -0.13379 0.39115 0.57388 0.27415 -0.22999 -1.552 -0.18566 0.11417 0.046391 0.092897 0.014341 -0.51053 0.026134 -0.18358 -0.086752 -0.46514 0.066186 -0.051579 0.21729 0.01321 -0.14427 -0.20214 0.097974 -0.093353 -0.088826 -0.013906 -0.3178 -0.022504 -0.44836 -0.25448 -0.34025 0.16494 0.15878 0.40396 0.23732 0.44045 -0.19768 -0.24619 -0.3348 -0.42617 -0.13594 0.019847 -0.078076 -0.31778 -0.035396 0.24541 -0.051234 -0.16412 -0.43749 0.078654 -0.037655 -0.20207 0.4705 -0.36125 -0.26304 -0.042786 0.098949 -0.23955 0.28493 0.49834 0.16958 -0.10968 -0.17119 -0.11412 -0.089734 0.046587 0.0038821 0.03061 0.10334 0.62792 -0.12658 0.0078052 -0.19496 -0.12243 0.39129 -0.18208 0.0024741 -0.098431 -0.64604 -0.46451 0.43382 0.020449 -0.1365 -0.13974 0.020622 -0.12527 -0.38344 0.10704 0.1874 -0.22563 -0.19473 0.075399 0.29653 -0.041397 0.13796 0.36987 0.14731 0.10135 -0.23178 -0.3876 -0.36777 -0.29519 -0.068961 -0.066408 0.049819 0.066286 -0.1661 0.059541 0.40307 0.12118 -0.42701 0.052231 0.17331 -0.077316 -0.082718 0.0012433 -0.28434 -0.13159 -0.058036 0.11946 0.028475 0.27057 0.1085 -0.046014 0.1222 0.5068 0.026802 -0.043768 0.1833 0.26894 -0.2791 0.2532 0.026661 0.15806 -0.12224 0.51045 -0.11163 -0.22285 -0.28256 -0.22052 0.045641 -0.31143 0.16874 0.52534 0.19441 0.26109 0.40923 -0.21299 -0.14349 -0.005225 -0.15327 -0.19442 -0.092324 -0.14247 0.11244 -0.1089 0.19817 -0.13738 -0.16832 0.16795 -0.21859 -0.061142 -0.048577 -0.0017002 0.25579
am -0.08176 0.9505 -0.19627 0.32322 -0.11475 0.72491 0.19991 -0.41873 -0.21523 2.2864 -0.37111 0.20624 -0.34831 -0.2462 0.19677 -0.079295 -0.3658 1.1856 -0.0035559 0.57556 -0.23356 -0.45721 0.18607 0.53613 -0.055108 0.26244 -0.01904 -0.053399 0.99329 -0.046326 -0.58343 0.24831 0.23628 0.36735 -0.41087 -0.024192 -0.38454 0.33113 -0.25281 -0.021088 -0.2903 -0.31195 -0.37847 0.79862 0.33756 0.60462 0.21106 0.017161 0.16436 -0.34147 0.32015 0.34738 -0.60944 0.28853 0.47932 0.58479 -0.75082 -0.44402 0.0065224 -0.10748 0.091903 -1.1566 -0.075945 -0.17315 -0.65896 -0.76838 0.69863 -0.039328 0.35764 0.5652 0.020184 -0.49523 -0.19349 -0.16587 0.83815 0.50432 0.53014 0.22458 -0.38416 0.62961 0.19621 0.051145 0.085893 -0.31473 0.34123 -0.1953 0.57403 -0.89242 0.60832 -0.021274 0.20518 -0.31363 -0.81625 0.29493 0.34002 0.23381 0.47663 0.064454 -0.17138 -0.10685 -0.011225 -0.058588 -0.20039 -0.24616 0.36297 0.56525 -0.51624 -0.80988 0.027651 0.10138 -0.24744 -0.30343 0.30367 -0.42305 0.56549 -0.1167 -0.31203 -0.56972 -0.080784 -0.092206 0.11807 -0.3799 0.41985 -0.26395 0.58506 -0.036453 -0.030516 -0.14047 -0.49372 0.05186 0.10483 -0.44887 -0.66936 -0.089778 0.13845 -0.69786 -0.43077 0.23854 -0.13252 0.21398 -1.3762 0.11814 0.16111 0.12531 0.054347 0.54878 -0.37092 -0.10099 -0.072403 -0.66552 -0.34027 0.032232 -0.07632 0.37552 -0.41588 0.22676 0.34596 -0.33434 -0.53742 0.094397 -0.017104 -0.2616 0.27804 -0.065511 0.073646 0.25776 -0.035709 -0.14276 -0.20539 -0.1876 -0.55609 -0.32273 0.29594 -0.39765 -0.025016 -0.048199 -0.34339 -0.17692 0.25867 0.68487 -0.33053 -0.057565 -0.33737 -0.12563 -0.29366 0.19139 0.053887 -0.027826 0.19512 0.11829 -0.58045 0.35679 -0.61477 -0.51816 0.14871 0.87451 -0.23132 0.4047 -0.078567 -0.20145 0.43885 -0.10504 0.066496 0.15818 0.32686 0.077705 -0.13774 -0.28313 0.056313 0.030749 -0.1683 -0.2482 0.16009 -0.27654 0.26247 -0.0071188 -0.34712 0.29753 -0.35213 -0.033462 0.32864 -0.041862 0.37404 0.25576 0.16339 -0.075334 0.34678 0.18152 -0.38499 -0.37584 -0.09058 0.1912 -0.30927 0.13177 -0.27881 -0.56982 -0.66286 -0.30949 -0.20002 0.49368 0.34719 0.023746 0.10352 0.28529 -0.40391 -0.40647 -0.039268 -0.14621 0.34379 0.855 -0.0744 0.15851 -0.073204 -0.072655 0.64226 -0.2316 0.0073683 -0.09214 0.063533 -0.074703 0.347 0.42235 0.48242 0.17781 -0.14147 -0.18437 -0.2447 0.084425 -0.0010549 0.10658 -0.25153 -0.17086 -0.68509 -0.12899 0.083986 0.15304 0.11152 -0.42578 -0.34582 0.79028 0.25903 -0.51056 0.079888 -0.025027 0.18446 0.026668 0.22356 -0.15973 0.10135 0.80687 0.063786 0.22335 -0.26171 -0.46166 0.037709 -0.077545 -0.17156 -0.15184 -0.23864 0.41293
'm 0.11091 0.41768 -0.52692 0.053355 0.15858 0.36928 0.12698 -0.13766 -0.052523 2.3422 -0.10203 0.29818 0.50324 -0.13558 -0.12587 0.049305 -0.089684 0.59229 -0.090652 0.33041 0.026907 -0.045617 -0.14848 0.4782 -0.38195 -0.22509 -0.023949 -0.30448 0.9208 -0.46735 -0.4107 0.47124 0.32238 -0.17712 -0.25499 -0.0041645 0.1045 0.17567 -0.043002 -0.19736 -0.051985 0.19247 -0.27714 0.2553 0.25956 0.5381 -0.14771 -0.32661 0.016971 -0.40918 0.12438 0.062576 -0.16317 -0.18283 0.11588 0.14665 -0.35762 -0.57166 0.32255 -0.15915 -0.083705 -0.68161 -0.25422 0.073165 -0.084766 -0.7011 -0.15848 -0.09716 -0.0045632 0.45467 -0.045645 0.17115 0.061744 0.061945 0.46153 0.50194 0.35642 0.10651 -0.41265 0.60282 -0.01326 -0.032368 0.10685 -0.011919 0.19299 -0.23652 0.19244 -0.76879 0.68904 0.12296 0.026944 -0.12465 -0.48905 0.3594 0.11218 0.21083 0.32104 0.087451 -0.080384 -0.042072 -0.21531 -0.054015 -0.1047 -0.21267 0.52176 -0.12083 0.016585 -0.35787 -0.054675 0.12737 -0.025396 -0.33435 0.65892 -0.48873 0.13759 -0.11368 -0.18754 -0.090445 0.080582 -0.16048 0.20731 -0.32995 0.21936 -0.18372 0.73031 0.32558 -0.019707 -0.23176 -0.32103 -0.11041 -0.17352 0.053064 -0.52517 0.21927 0.42101 -0.54091 -0.32043 -0.19363 -0.067479 -0.093367 -2.5111 0.19495 0.051352 -0.1428 -0.30698 -0.21597 -0.4414 0.13046 -0.19252 -0.5732 -0.22677 0.1082 -0.2942 0.25021 -0.23961 0.012342 0.11159 -0.33491 -0.0315 -0.29058 -0.45926 0.20147 -0.24992 -0.15125 -0.48773 -0.10523 0.39576 -0.13345 0.18399 -0.033228 -0.1974 -0.19099 0.076265 -0.53784 -0.14001 -0.086732 -0.23659 -0.07528 0.080553 0.15229 -0.087175 -0.32467 -0.55366 -0.18983 0.22066 0.0084688 -0.052049 0.15034 -0.012114 0.024428 -0.080493 -0.041111 -0.34025 -0.55827 0.40367 0.40959 0.16248 -0.31544 -0.038846 -0.14078 0.19939 -0.31359 -0.16797 0.02575 -0.01554 0.0067183 0.086411 -0.08185 0.12505 -0.29311 -0.11875 -0.35172 0.17915 -0.37783 0.016364 0.50198 -0.37473 0.12127 -0.27885 -0.033315 -0.20811 0.083733 0.20194 0.13864 0.12361 -0.12157 0.52583 0.1356 -0.14928 -0.15848 -0.38541 -0.00094984 0.0043478 -0.062388 0.0073085 -0.20252 -0.0058002 -0.56411 -0.016007 0.56078 0.39511 -0.10052 0.35195 0.32257 -0.37863 0.0037856 0.057845 -0.026192 0.10364 0.63099 -0.12092 -0.28538 0.10402 0.24619 0.13146 -0.20447 -0.19446 -0.42367 -0.054473 0.3131 0.034386 0.58071 0.095663 0.01205 0.093813 0.10713 0.16983 0.1547 0.26303 -0.12507 -0.11951 -0.26824 -0.69441 -0.50804 0.025391 0.021444 0.17785 -0.48112 0.017239 0.16498 0.2344 -0.34695 -0.12313 -0.42644 -0.11524 -0.25719 0.20299 -0.40337 -0.041727 0.38123 -0.02289 0.011123 -0.022783 0.029213 0.17679 0.16422 -0.22707 -0.23104 0.0017436 0.030508
did -0.068894 0.38769 -0.2612 -0.13737 -0.2154 0.16583 -0.057185 -0.1818 -0.091393 3.0152 0.0080077 -0.14678 0.59703 0.13855 -0.38471 -0.18226 -0.048115 0.19229 -0.39827 -0.069427 0.44313 0.039526 0.12246 -0.0095958 -0.27647 0.052025 -0.20317 -0.24843 0.18102 -0.146 -0.18892 0.29503 0.033175 0.017062 -0.050974 -0.10416 -0.083443 -0.036962 -0.31562 -0.25156 -0.078766 0.3288 0.0047974 -0.17029 0.25234 -0.043896 -0.3515 0.044745 0.30536 0.0063232 -0.13202 -0.0034639 0.23588 0.080575 0.32261 -0.11584 -0.079779 -0.21162 0.032221 -0.023761 -0.060977 -0.24384 0.092764 0.59417 0.050349 -0.076585 0.024472 0.063355 0.52163 0.14607 0.39275 0.40531 0.1003 -0.042093 0.22654 0.12735 -0.0407 -0.21567 -0.073999 0.20608 0.052384 -0.053651 -0.068521 -0.19867 0.032769 -0.2159 0.24419 -0.88759 0.079682 0.1556 -0.17208 -0.13209 -0.293 0.30658 0.68035 -0.10776 0.3552 -0.040542 0.056704 0.23509 -0.18616 0.36344 0.1102 -0.19391 0.10941 -0.61226 0.10745 -0.27369 -0.057156 -0.014424 0.06523 0.040382 0.099708 -0.20316 0.24752 -0.38636 0.41649 -0.022005 0.028479 0.037521 0.30145 -0.19554 0.21607 -0.0021629 -0.091473 0.13047 -0.25666 -0.41818 0.053018 0.12377 0.18438 0.13254 -0.14962 0.11432 0.32478 -0.069747 0.10825 0.13107 -0.018367 -0.12022 -2.0446 -0.0063927 0.18149 -0.053651 0.17999 0.045148 -0.49186 0.071751 -0.13357 -0.15676 0.043813 0.035569 0.09355 0.11504 -0.070877 -0.37313 -0.16702 -0.17217 0.24716 0.058633 -0.38154 0.026736 -0.35032 -0.1229 -0.31388 -0.083798 -0.1386 -0.15093 0.17949 -0.042628 -0.12303 -0.067392 -0.017052 -0.46894 -0.27076 0.013046 -0.031676 0.07704 0.044534 -0.34076 -0.1318 -0.11474 -0.46655 -0.0065947 0.074149 -0.028732 -0.083976 0.12192 0.084805 0.19186 0.29073 0.10824 -0.48059 -0.02435 0.080575 0.16651 0.070393 -0.34514 0.18124 0.25638 -0.20278 -0.013885 -0.050953 -0.3456 0.25451 0.07556 0.24931 -0.21375 0.42524 0.31741 0.3478 0.11065 -0.0098968 -0.12733 0.085349 0.048286 -0.18867 -0.20865 -0.08543 0.010498 0.25702 0.098603 -0.15663 0.13255 -0.096963 0.37287 0.042068 0.0015415 -0.08682 0.060504 -0.23958 0.080184 0.074252 0.15825 -0.20592 -0.1787 0.26432 -0.12007 0.056193 0.16916 -0.1106 -0.029442 -0.038349 0.32298 0.13419 -0.31025 -0.13205 -0.045077 -0.45831 0.4171 0.18851 -0.14794 -0.3806 -0.2004 0.049388 -0.2728 -0.09721 0.012075 0.10529 0.16312 0.41713 0.20106 -0.075969 0.11092 0.19831 0.28921 0.1226 0.15835 0.13568 0.49098 0.52886 0.1957 0.27019 -0.18661 -0.29612 0.12648 -0.20609 -0.30811 -0.087578 0.34066 0.023827 0.10351 0.15046 0.2493 -0.18511 -0.063229 0.1456 0.22438 0.16841 0.091937 -0.23429 0.19559 0.16045 0.2012 0.33907 -0.26314 -0.14529 0.19304 0.37526 0.14579
much -0.40534 0.47027 -0.066601 -0.065326 -0.023718 0.17302 0.10295 -0.2044 -0.29718 2.6651 -0.017287 -0.09655 0.0069826 0.074771 -0.33846 -0.14759 -0.14009 0.91143 -0.49624 0.032248 0.053474 0.025279 -0.022867 -0.50021 -0.37396 -0.087621 0.25284 0.029272 0.34831 -0.032874 -0.17485 0.15799 0.043785 -0.2728 0.27725 -0.05775 -0.042942 0.1118 -0.048652 -0.24844 0.029839 0.21678 0.10297 0.22474 0.18226 -0.010612 -0.21249 -0.16892 0.058867 0.18673 -0.13531 0.29417 0.12981 -0.053318 0.34766 0.033156 -0.059388 -0.36291 0.17337 -0.03481 -0.18018 -0.17835 -0.16531 0.25591 0.060574 -0.29796 -0.047236 0.34589 0.15172 -0.24321 0.23754 0.040394 0.14885 -0.092209 0.095558 0.47539 0.19855 0.081741 -0.035871 0.50844 0.38579 0.077905 0.049872 -0.021941 0.057663 -0.66887 -0.04208 -0.40047 0.35145 0.096145 -0.12316 -0.059207 -0.34345 0.3079 0.24121 0.16552 0.1946 -0.0066508 -0.19752 -0.023031 -0.17913 -0.066479 -0.31459 -0.081243 0.25783 -1.222 0.15335 -0.1335 -0.1537 -0.13628 0.019721 -0.37401 0.25222 -0.15688 -0.037734 -0.029242 -0.35204 -0.21269 0.13887 -0.015328 0.2599 -0.027986 0.022257 -0.10019 0.0017306 -0.015555 -0.21627 -0.1223 0.046308 0.10327 -0.19107 -0.17939 -0.13532 0.015249 0.10807 -0.054658 -0.10958 -0.22556 -0.21701 -0.19527 -1.8212 0.49611 0.34067 0.15281 -0.03963 -0.51575 -0.25391 0.16161 0.088116 0.24702 0.24655 0.40708 0.27201 0.011284 -0.16768 -0.32467 0.17594 0.040049 0.03956 -0.40261 -0.054802 0.20123 -0.17877 -0.20089 -0.16242 0.058719 0.21583 -0.05537 0.31179 -0.14343 0.083999 -0.015056 0.17339 -0.22717 -0.031058 0.0054495 -0.27517 0.079968 0.027275 -0.06875 0.035167 -0.30389 -0.24138 0.017157 -0.037922 -0.12056 -0.083927 -0.30466 0.11205 0.2905 0.18874 0.16428 -0.090615 0.10425 0.051031 -0.091414 -0.10924 -0.059686 0.034849 0.38355 0.088346 -0.056459 -0.17076 0.0061695 -0.23155 0.025322 0.13814 -0.27451 0.10682 -0.0075068 -0.18628 -0.25072 0.1268 -0.56309 0.15485 0.20825 0.1902 -0.077214 0.068544 0.087824 0.38965 0.21267 0.07707 -0.084722 -0.043291 0.25623 -0.17873 0.021001 0.077394 0.021277 -0.09562 -0.1315 0.061437 0.07968 0.1529 -0.012888 0.41081 -0.050938 -0.049696 0.15288 0.086579 0.17947 -0.10599 0.23557 0.35892 -0.18572 -0.19448 -0.27608 0.0086664 0.093393 0.2301 -0.14677 0.012069 -0.16529 -0.10938 0.40159 0.11175 -0.075665 0.003855 0.22231 0.13191 0.29248 -0.10207 0.34355 0.12209 0.0055029 0.042769 0.12336 0.25709 0.35948 0.19747 0.033785 -0.23864 -0.71155 -0.15483 0.053521 0.17336 -0.21297 -0.19708 0.59942 0.059284 -0.040344 0.028544 0.015639 -0.14455 0.044087 0.20603 -0.53188 0.011002 -0.19046 -0.44992 0.022224 -0.037792 0.0079222 0.31305 0.1639 -0.18409 -0.27371 0.023544 0.2625
're -0.12598 0.23681 -0.30048 -0.034822 0.1494 -0.036147 -0.02916 0.042446 -0.014922 2.4803 0.13138 0.1827 0.19732 -0.11765 -0.1991 -0.099976 -0.013003 0.86874 -0.25387 -0.047935 0.062166 -0.068214 0.090818 0.18553 -0.46234 -0.074295 -0.11136 -0.17341 0.62637 -0.54815 -0.23186 0.21671 0.23657 0.0034814 0.21973 0.081694 0.072784 0.32418 0.18485 -0.078116 -0.10398 0.25184 -0.32611 0.2105 0.17217 0.14633 -0.2461 -0.12313 0.018549 -0.17679 0.054608 0.019721 -0.14351 -0.098868 0.19156 -0.18175 -0.0096741 -0.2886 0.32727 0.087877 0.15791 -0.59451 -0.40692 0.10203 0.20662 -0.30393 -0.17494 0.16815 0.13331 0.20567 0.021249 0.23856 0.54913 -0.10505 0.10088 -0.035271 0.42108 -0.046818 0.07619 0.54104 0.035311 -0.085459 -0.23098 0.062153 -0.14791 -0.21184 -0.17303 -0.34038 0.51728 0.059601 -0.12829 0.17726 -0.0044329 0.13955 -0.17913 0.13499 -0.30629 -0.40483 0.093147 -0.069782 -0.11435 0.15556 -0.16525 -0.0072852 0.4526 -0.45582 0.23156 -0.33502 0.038883 0.36845 -0.010226 -0.3291 0.72277 -0.19368 0.26302 0.078934 0.079095 0.22046 -0.41357 -0.026871 0.066428 -0.2231 0.021052 -0.087812 0.57772 -0.06289 0.11224 -0.30373 -0.43458 -0.24094 -0.10639 -0.10959 -0.14303 -0.10129 0.20117 -0.1626 -0.26334 -0.2848 -0.13761 0.030538 -2.1268 0.22864 -0.21886 -0.094784 -0.070648 -0.32755 0.07318 0.25432 0.017743 -0.20381 0.048345 -0.085388 -0.051551 0.026829 -0.017335 0.37336 -0.066955 -0.2004 -0.055134 -0.14291 -0.4198 0.15889 -0.34629 -0.16996 -0.1099 -0.27387 0.50658 -0.46021 0.12509 -0.091655 0.079102 0.070087 0.20379 -0.020391 -0.076817 -0.11453 -0.23451 0.079403 0.094492 0.10165 0.083505 -0.08797 -0.31083 -0.17076 0.066609 0.089503 0.25501 -0.13593 0.026518 0.086873 0.34049 0.01044 0.15305 -0.29087 0.067273 0.19965 0.106 0.10882 0.019005 0.44465 0.16081 -0.2392 0.17224 0.028367 0.085946 -0.049735 -0.0084397 -0.017956 0.53168 -0.48747 0.20351 -0.40947 0.11752 -0.42937 0.17858 0.43189 0.0097437 0.27766 -0.5458 -0.26416 -0.16082 0.27527 -0.1274 0.023949 0.3871 -0.47191 -0.045332 0.05368 -0.1138 -0.47495 -0.16382 -0.078423 0.18142 -0.13703 -0.060409 0.22847 0.15158 -0.83614 -0.22553 0.38352 0.24135 0.039261 0.22913 0.27824 -0.3693 0.12437 -0.30092 -0.10804 -0.031174 0.4849 -0.29842 -0.15944 0.052066 0.059537 -0.13802 0.15527 -0.24373 -0.20169 0.21848 0.55785 0.030584 0.63418 0.071647 -0.10504 0.21907 0.16623 0.12458 0.46116 0.54494 0.10317 -0.43065 -0.24416 -0.69782 -0.47639 -0.069007 -0.21339 0.18076 -0.0571 0.094077 0.10082 0.15056 -0.12696 -0.12386 -0.28849 0.044003 -0.25213 -0.0016345 -0.70346 0.045023 0.30148 -0.26656 -0.012663 -0.28847 -0.23672 0.10115 0.13502 -0.3487 -0.18094 0.16793 -0.19305
those 0.071581 -0.29914 -0.42045 -0.29972 0.066875 -0.021094 -0.059444 0.17486 0.18224 2.8962 0.042626 -0.061845 0.24701 -0.15024 0.035138 -0.089777 -0.038115 1.0321 -0.30509 -0.0345 -0.019471 -0.14703 -0.12527 -0.10681 -0.0033108 -0.067332 -0.0083367 -0.1758 0.2963 0.030599 -0.0044042 0.47084 -0.27969 -0.021863 0.27206 -0.030191 -0.2037 0.047521 0.011959 0.41817 -0.29425 0.10364 -0.041619 0.045908 0.16157 0.03388 -0.18604 0.28399 0.2064 0.0093452 -0.45926 0.027122 -0.24699 -0.19924 0.00096762 0.080575 -0.28053 0.13966 -0.26836 0.13274 0.19404 -0.15735 -0.30073 0.33549 0.12516 0.061323 0.17988 0.27457 0.089239 0.0066431 0.34149 -0.08371 0.59532 0.1149 0.13943 0.078172 0.13885 0.23747 0.094832 0.24408 -0.030395 0.073636 -0.25985 -0.34648 0.058266 -0.23268 -0.30143 -0.30423 -0.017578 -0.2103 -0.042032 -0.071681 0.018618 0.035695 0.19914 0.20577 0.067859 -0.02309 -0.095505 -0.16108 -0.21328 0.31479 0.027055 -0.25463 0.43237 -1.6 -0.1452 -0.056539 -0.018974 0.3405 0.27581 -0.19832 0.0061007 -0.18555 -0.096981 -0.18162 -0.23084 0.14972 -0.25129 0.095676 0.48058 -0.093747 -0.17167 -0.11449 0.28457 -0.051314 0.095162 -0.19397 0.285 0.23172 0.0041194 0.071477 0.0023194 -0.25516 -0.12771 0.29274 -0.052794 -0.040849 0.012145 0.19093 -1.4424 0.038993 0.19432 0.069062 -0.0015787 0.029246 0.14367 0.1048 -0.19324 -0.043114 0.14564 -0.097387 0.057114 -0.15932 -0.23496 -0.10097 -0.37396 0.1015 -0.095053 -0.2529 -0.16957 0.28 -0.14146 0.11868 -0.12021 -0.038371 0.2122 -0.13545 0.045741 -0.29848 0.02317 0.15747 0.46867 0.048033 0.13975 0.024883 -0.17845 -0.062788 0.37877 -0.10475 -0.15497 0.041446 -0.21962 -0.11615 -0.015108 -0.16646 -0.12638 -0.38734 0.35576 0.27516 0.39993 -0.23208 -0.10595 -0.17881 -0.28928 0.25513 -0.27707 -0.013194 -0.17208 0.070065 -0.16369 -0.24794 0.0947 -0.053096 0.34135 0.064662 -0.071367 -0.099271 0.051975 -0.10272 0.30173 0.24607 -0.22092 -0.28938 -0.33355 0.11964 -0.021582 -0.12534 -0.25038 -0.14695 0.17292 0.17272 -0.28335 0.1703 0.23981 -0.0056698 -0.22621 0.099496 -0.24752 -0.22875 -0.17851 -0.04065 -0.18636 0.26433 0.29272 -0.0097701 0.3155 -0.12188 0.16957 0.10339 -0.13754 0.092635 -0.29165 0.42634 0.27304 -0.048503 -0.044891 -0.22589 -0.20209 0.64532 0.15766 -0.030415 -0.2356 0.025737 0.0045804 0.66346 0.084969 0.18145 0.041407 0.48804 -0.10254 0.19301 -0.30565 0.24942 -0.1136 0.27851 0.36354 0.1609 0.74239 -0.067895 -0.027829 -0.17289 -0.10316 -0.39704 0.023296 0.012219 0.16723 0.47027 -0.13989 0.12263 0.039486 0.27303 -0.02102 -0.040468 0.41047 -0.014021 0.4832 -0.069472 0.14825 0.18389 -0.8011 -0.1117 0.12422 -0.24945 -0.19024 -0.16228 -0.017029 -0.073457 0.32925 -0.17138
off 0.021815 -0.08037 -0.016587 0.36884 0.021315 -0.19966 -0.43646 -0.072056 -0.0095451 2.4487 0.16047 0.40765 0.03543 -0.18415 -0.026831 -0.27998 -0.10624 0.88484 -0.086718 -0.14614 0.15993 0.31527 -0.20284 0.029561 -0.06672 -0.33232 0.1481 -0.39053 0.013258 -0.057302 -0.21731 0.34942 -0.11826 0.037617 0.16167 -0.28229 -0.31168 0.23289 -0.036159 0.046275 -0.086852 0.014177 -0.036734 -0.053606 0.25657 0.20827 -0.34503 -0.25451 -0.38439 0.019507 0.12429 -0.031082 0.070283 0.60901 -0.18158 -0.095019 -0.23234 -0.14843 -0.12754 -0.40843 -0.067502 -0.15274 0.051433 0.07937 0.43255 -0.014112 -0.14862 0.13139 0.32178 0.65294 0.33199 0.12428 0.15454 0.22275 -0.10996 -0.17255 0.29111 -0.075782 -0.069372 -0.065191 0.28037 0.078793 -0.32931 -0.1271 -0.0065895 0.043647 0.40077 0.19232 0.43546 0.2981 -0.12149 0.36123 0.33871 -0.13096 -0.29918 0.084249 0.14431 -0.18841 0.36851 -0.043513 0.075699 -0.049814 -0.12392 -0.31367 -0.12247 -0.22481 0.11228 0.11774 0.081594 -0.036639 0.10846 -0.77974 0.030475 0.17691 -0.0028985 0.035172 0.12521 0.10487 -0.12392 0.10606 0.21847 0.0084896 0.085924 -0.014681 -0.14941 -0.039789 -0.53546 0.5738 -0.12475 -0.3268 -0.26453 -0.024342 -0.20718 0.082894 0.076871 -0.019247 0.11316 0.22362 0.10955 -0.050676 -2.0505 0.19182 0.36434 0.19034 0.07366 0.19875 -0.18641 0.474 0.01198 0.16527 -0.11668 -0.15719 0.15548 -0.25234 -0.024981 -0.17218 0.08695 0.19417 0.1581 0.097062 -0.087419 -0.17847 0.055146 0.12373 0.078168 -0.34627 -0.050118 0.33058 0.2386 -0.15926 0.085362 -0.027235 -0.40004 -0.20258 -0.051802 -0.10628 0.11411 0.1257 0.17488 -0.043011 -0.027904 -0.0032304 -0.059995 -0.1796 0.074391 0.1297 -0.023559 -0.052048 0.38473 0.17045 0.22955 -0.044841 -0.19178 0.074594 -0.21568 0.35769 -0.12764 -0.065108 0.066594 0.14818 -0.039077 -0.17744 0.013428 0.25959 0.46501 0.1728 -0.22287 -0.17114 0.18488 -0.0045587 -0.03493 -0.052684 -0.016312 0.098497 -0.01345 0.12842 0.0545 0.29778 -0.33004 0.050721 -0.07892 -0.0012064 -0.30709 -0.22903 0.094554 -0.61789 0.137 0.12091 0.13513 0.51344 0.21395 -0.13443 0.59991 0.084399 0.19977 -0.31051 0.20426 0.16119 0.1882 0.074762 0.40352 0.20719 0.058221 0.27873 0.084746 -0.3135 -0.31417 -0.13315 0.011096 0.44295 -0.40405 -0.2463 0.066678 0.027689 0.32494 0.50042 0.062479 -0.062312 -0.2241 0.19823 0.14088 0.56624 0.30117 -0.27165 0.78443 -0.026183 -0.029438 -0.1859 0.075214 -0.46203 0.1123 -0.073739 -0.098065 -0.10855 0.30576 -0.080265 -0.25911 0.13689 -0.19054 0.29274 0.010831 0.016637 -0.15542 0.63248 -0.24158 0.12038 0.1478 -0.53207 0.039709 -0.21444 -0.12813 0.1081 0.11016 0.004529 -0.24553 -0.18807 0.096058 0.13165 -0.15776 -0.3501
They -0.42462 0.029553 0.025563 -0.28222 -0.18465 -0.23278 -0.048061 0.16948 -0.0083699 2.3555 0.067713 0.072946 0.31751 0.081838 -0.5189 0.24359 0.05734 0.79953 -0.32252 0.08474 0.15031 0.024303 0.24878 0.35686 -0.54298 0.010901 -0.068009 -0.20599 0.025725 -0.32078 -0.16653 0.208 -0.18394 -0.19709 0.39029 0.13557 0.28827 0.34554 0.14277 0.15724 0.0023577 0.20215 -0.099311 -0.19752 0.42423 -0.52545 -0.34481 -0.025187 0.14293 0.21396 0.0044566 0.093559 0.13231 -0.020882 0.29213 -0.23851 -0.10588 -0.051094 -0.040993 0.24061 0.15489 -0.078033 0.33405 0.2364 -0.39562 0.31239 0.16585 0.0023415 0.46207 0.043359 0.087841 0.41238 0.44799 0.11463 0.044623 -0.066413 0.1132 -0.10271 0.10166 0.045408 -0.27774 -0.067324 -0.65519 -0.16224 -0.24176 -0.25956 -0.23957 -0.20945 0.246 0.039252 -0.042316 -0.46694 -0.098088 0.2824 0.21026 0.42149 0.13231 -0.2661 -0.13893 -0.35204 -0.35505 0.34181 0.0085494 -0.19676 -0.095179 -0.27975 0.2945 -0.33755 -0.06352 0.46625 0.10804 -0.076653 0.36972 -0.22378 0.33956 0.17705 0.21056 -0.04212 -0.31495 0.10379 0.082843 -0.13991 -0.029975 -0.23785 -0.06546 -0.25769 0.21027 -0.15937 -0.18686 -0.13945 0.35029 0.085436 -0.33985 0.23759 0.12956 0.10018 0.23491 -0.26358 0.072772 -0.014278 -1.5114 0.23225 0.33225 -0.030212 0.27829 0.00917 -0.18714 0.045967 -0.14468 -0.56672 0.11276 0.15396 -0.07201 0.030586 -0.10156 0.28511 -0.20214 -0.2035 -0.10604 -0.31107 0.054243 -0.066196 0.085624 -0.15213 -0.31286 0.037111 0.36933 -0.48872 -0.086039 0.22642 0.077393 0.041268 0.13275 -0.25889 0.11153 -0.002542 0.072096 0.35595 0.14164 -0.3193 0.11256 0.043282 -0.40285 -0.12004 -0.053075 -0.18691 -0.14621 -0.04611 0.14245 0.28137 0.37349 -0.03592 0.06926 -0.077301 -0.26352 0.29972 0.090085 0.15513 -0.12336 0.2254 0.26197 -0.073506 0.2558 -0.15606 0.14952 0.12824 -0.10251 -0.15351 0.38545 -0.041722 0.20814 0.12586 -0.38353 -0.13026 0.0035732 -0.13557 0.015391 0.0089563 -0.31121 -0.2997 0.17531 -0.12349 0.13874 0.29585 0.020042 0.049906 -0.0076088 0.47431 -0.1991 -0.06037 0.081287 -0.091788 -0.096122 -0.28871 0.18428 0.082582 0.241 -0.79438 -0.2273 0.3245 -0.073353 0.067247 0.055619 0.17643 -0.045666 -0.015966 -0.4499 -0.37534 -0.48814 0.34376 -0.36123 0.024736 -0.20229 -0.10415 0.02332 0.094286 -0.074116 -0.039674 -0.07124 0.41993 0.21146 0.1136 -0.073886 -0.1507 0.15871 0.30885 0.30703 0.17897 0.22104 0.3215 -0.33603 -0.071363 -0.3536 -0.33843 -0.23512 -0.17418 -0.043262 0.048283 0.16621 0.34078 0.028732 0.12921 0.01991 -0.17998 -0.23748 -0.04911 0.018202 -0.019709 -0.12585 0.31469 -0.52584 0.11457 -0.27852 0.22496 -0.061101 0.16703 0.19767 -0.10931 0.69296 -0.15617
both -0.0013191 -0.17966 -0.31849 -0.014862 0.33754 -0.10872 0.095244 0.052442 0.10741 2.7452 0.30139 0.26483 0.0019938 -0.20234 -0.044566 -0.038756 -0.032346 1.1257 -0.58622 -0.045418 -0.44764 -0.18575 -0.043988 -0.064735 0.13678 -0.084818 0.0071401 0.10308 -0.016014 0.13704 -0.1905 0.43943 0.037773 -0.04697 -0.13275 -0.23327 -0.027524 -0.14138 -0.033045 -0.29447 -0.071677 0.14994 -0.31396 0.03614 0.13829 0.0089938 -0.035467 0.076096 0.082671 0.063707 0.00029024 0.040229 -0.27877 -0.19712 0.0035676 0.20782 -0.40523 -0.13914 -0.29425 0.14109 0.22564 0.081155 -0.09317 0.3009 0.027219 0.21203 0.16267 0.015551 0.30035 -0.048221 0.16101 0.24966 0.19996 0.15883 -0.044053 0.15569 -0.1602 0.026219 -0.10185 0.086094 -0.018011 -0.012344 -0.08979 -0.080254 0.2249 -0.36867 -0.46151 0.057809 0.13471 -0.18835 -0.27125 0.061074 0.1243 0.33667 0.43469 -0.15184 0.29159 -0.10905 -0.27471 -0.20426 -0.047827 0.028625 -0.16668 -0.16001 0.14431 -1.2341 -0.053588 -0.12205 -0.11755 0.17352 0.0042175 -0.30879 0.014487 -0.15563 0.0081208 -0.24005 -0.011464 0.25513 0.15579 0.28572 0.12679 0.065286 0.38091 -0.064988 0.0057413 0.18672 -0.013611 -0.2997 0.069521 0.010985 -0.30331 0.073823 -0.029027 -0.19991 0.048917 0.25588 0.21983 -0.37232 0.19781 -0.022147 -0.80565 -0.40426 0.20575 0.038478 -0.011395 -0.083345 -0.12213 -0.16705 -0.1276 -0.035782 -0.34268 0.099234 0.3011 0.1735 -0.076375 -0.12616 -0.27233 0.15146 -0.15269 -0.36103 -0.21035 0.27521 -0.068001 -0.32888 0.081943 -0.48546 -0.11223 -0.018879 0.00011273 -0.23224 0.077314 0.056205 0.017568 0.078276 -0.1135 -0.0017855 -0.20186 -0.14293 0.21689 -0.17485 0.085433 -0.19499 -0.24358 0.12274 -0.19027 0.16068 0.24801 -0.17104 0.050776 0.16708 0.13261 -0.16073 -0.024793 0.20156 -0.16512 -0.054277 -0.35908 -0.0084197 -0.18921 0.20931 -0.16554 -0.12275 0.034518 0.088075 0.33785 -0.045286 0.029948 0.018634 -0.052503 -0.065055 -0.093881 0.10439 -0.12472 -0.41126 -0.047363 0.24922 -0.046663 -0.14304 0.0055578 0.042746 0.014442 -0.0634 -0.050911 -0.024478 0.21592 0.020859 0.080504 0.034831 0.4098 0.22049 -0.34534 -0.41943 -0.025765 0.52167 0.10938 -0.29124 0.15778 -0.058884 0.15752 0.19954 0.066326 0.15604 -0.12999 0.36277 0.26814 -0.15473 -0.51119 -0.293 0.01277 0.1516 0.2455 -0.079709 -0.372 -0.33665 -0.015414 -0.016102 0.3081 0.17397 0.023445 0.17504 0.39138 0.18679 -0.18815 0.032246 -0.15564 0.1655 0.088063 -0.0071786 0.33905 -0.16609 0.13612 -0.042709 -0.014308 -0.0027854 0.0039826 0.10076 0.1877 0.16899 -0.27017 0.50084 0.089543 0.18364 -0.22173 -0.011741 0.17235 0.16973 0.18948 -0.16769 0.1464 -0.061268 -0.28257 0.047574 -0.031968 0.026263 -0.20164 0.050086 0.043053 -0.36794 0.22623 0.1065
better -0.45757 0.21399 -0.14695 -0.40204 -0.10072 -0.18309 0.27331 -0.088105 -0.13043 2.2558 -0.31569 0.21417 0.025066 0.17496 -0.064552 -0.041337 -0.064489 1.0311 -0.5428 0.040008 -0.052059 0.18666 0.3626 -0.40069 -0.13898 0.073806 -0.0035409 -0.22745 0.22171 -0.11224 -0.1257 0.055435 0.16136 -0.28988 0.11384 -0.067585 0.2949 0.012439 -0.091579 -0.38527 -0.10462 0.025123 0.0072971 0.17166 0.074462 -0.10855 -0.25296 0.011708 -0.30376 0.049348 0.10837 0.24003 0.13506 -0.30202 0.20633 0.15974 -0.26436 -0.16374 0.10643 0.16242 -0.20473 -0.4648 -0.10799 0.48992 0.3957 -0.085816 -0.066768 0.33603 0.23921 -0.37086 -0.0037846 0.10104 0.25868 0.04332 -0.29832 0.19463 0.24024 -0.17708 0.34279 0.42502 0.034723 0.1306 0.33249 0.0024343 -0.025169 -0.32852 -0.15201 -0.3328 0.27122 -0.1291 -0.10039 -0.12857 -0.34152 0.36463 0.13322 -0.18465 0.49774 -0.070733 0.10789 0.099672 -0.20105 -0.10085 -0.1325 0.17537 0.40301 -1.2356 0.50706 -0.052597 -0.031208 -0.12835 0.17198 -0.30364 0.12115 -0.019318 0.19329 0.057052 0.043031 -0.20234 -0.090839 -0.0056155 0.47508 0.12566 0.062216 0.07139 0.033217 -0.039137 -0.11849 -0.13507 0.035107 0.027187 -0.12074 0.025188 -0.11583 -0.062981 0.1677 0.16143 -0.058445 -0.30755 -0.065054 -0.087811 -1.9144 0.33924 0.25746 0.016513 -0.14135 -0.55829 -0.2269 0.18596 0.11288 0.12939 -0.19149 0.13099 0.19167 0.17687 -0.10085 -0.36105 -0.038509 -0.1383 0.14565 -0.55568 0.014901 0.25651 -0.043754 -0.28624 0.18878 -0.48673 0.34309 -0.34009 0.29966 -0.15494 0.10862 -0.020673 0.33311 -0.33908 0.11974 0.082347 -0.11373 0.10959 -0.0029446 -0.060713 0.01138 -0.24493 -0.42603 0.010673 0.14116 0.25409 -0.041593 0.043328 0.12949 0.10515 0.035003 -0.043005 0.17719 0.13785 -0.0018064 0.33446 -0.10669 0.020385 -0.19527 0.1973 0.35922 -0.23094 -0.021544 -0.19766 0.04238 0.081717 -0.11105 -0.26839 0.036765 0.23665 -0.28001 -0.25634 -0.14288 -0.46042 -0.010628 -0.038762 0.22823 -0.20437 -0.14964 -0.032139 0.11951 0.032237 -0.26875 -0.023171 0.43192 0.12604 -0.11095 -0.015838 0.17319 0.18232 -0.38116 -0.16854 0.36448 0.34937 0.22557 -0.02712 0.44335 -0.34498 -0.029219 0.018894 0.0076461 -0.19691 -0.022209 0.34061 0.17048 -0.026985 -0.032456 -0.21732 -0.38016 0.14547 0.35271 -0.21219 -0.25576 0.046325 -0.059676 0.075332 0.27135 -0.16738 -0.090221 0.062243 -0.0031383 0.047439 0.45071 0.082581 0.32933 -0.1302 -0.026061 0.17451 0.49696 0.57928 0.18596 0.04335 -0.10726 -0.34573 -0.3307 0.1894 0.34367 -0.014269 -0.063157 0.50431 -0.22413 -0.056212 0.094328 -0.23528 0.0050366 -0.24207 0.080815 -0.23605 0.11405 0.014583 -0.34949 -0.11544 -0.1494 -0.089989 0.307 -0.11595 -0.20577 -0.4133 0.1645 0.46588
between 0.34016 0.012532 -0.17332 -0.045156 0.30167 -0.36397 -0.24421 0.54917 0.65287 2.4685 0.16456 0.4749 0.095939 -0.060337 -0.059836 0.071649 -0.27261 1.3981 -0.06744 -0.46423 -0.13772 -0.075639 -0.33648 -0.23905 0.26763 -0.38624 0.089602 0.02804 -0.25936 0.49058 0.10302 0.72445 0.15631 -0.0967 0.20247 -0.053662 -0.37557 -0.11255 0.0092299 -0.060917 -0.022601 0.44882 -0.50674 0.13196 0.027314 -0.074158 -0.12459 -0.086276 -0.38242 -0.10227 0.5581 0.016481 -0.59811 -0.25285 0.26106 0.32007 -0.017697 -0.1951 0.23643 0.12374 0.40862 0.1987 -0.17261 0.36482 -0.43334 -0.11347 0.23207 0.54101 -0.2456 0.26786 -0.091669 0.043882 0.44767 0.59505 0.33004 0.24934 -0.19761 0.18536 0.30755 0.054918 0.28653 0.054643 -0.088671 -0.21445 -0.023885 -0.055443 -0.35284 -0.097914 0.35524 -0.063354 -0.62195 -0.28565 -0.064975 -0.26591 -0.2883 -0.33777 0.47842 -0.15407 -0.046854 -0.29432 0.40689 0.76372 -0.11924 -0.013626 -0.11411 -1.3104 -0.2732 0.44594 0.1717 0.19193 0.053706 -0.61231 -0.028758 0.47221 0.13127 -0.23981 -0.151 -0.0019637 0.18612 0.3607 0.16044 -0.24158 -0.2394 -0.20485 0.00024127 0.32564 0.28224 -0.076781 -0.29717 -0.010334 -0.21311 0.095568 0.28348 0.11581 -0.0069843 0.0016021 0.019498 -0.035458 0.075281 -0.31004 -0.48336 -0.27685 -0.23774 0.26109 -0.43501 0.17025 -0.29378 -0.40334 0.16372 -0.011219 -0.49809 -0.39837 0.074835 -0.048853 -0.17749 -0.21572 0.34111 0.43748 -0.33055 0.03089 -0.4649 0.17727 0.14467 -0.61845 0.08511 0.018971 -0.31033 0.19661 0.023369 0.3622 0.52969 0.23725 -0.17888 0.37432 -0.16699 0.42894 -0.25124 -0.30212 0.55815 -0.47303 0.29102 -0.26491 -0.3372 -0.30108 -0.14466 0.27314 -0.17027 -0.30602 0.1782 -0.017453 0.056742 0.033226 -0.041009 0.067639 -0.18392 0.16968 0.11815 -0.035751 -0.65461 0.2467 0.15084 -0.041647 0.052015 0.20451 0.43038 0.038889 0.044573 -0.068492 -0.22935 -0.19507 -0.37236 -0.20923 0.16665 -0.22789 0.036703 -0.010415 -0.25525 0.32019 0.14651 0.073176 0.48474 0.19086 0.0022873 -0.17856 0.0332 -0.022273 0.20414 0.27166 0.73345 0.40815 -0.22929 0.11878 0.39755 0.16337 -0.094222 -0.12788 -0.20716 0.26855 0.15786 0.14034 0.3969 0.34205 0.069682 0.21821 -0.12138 -0.29974 -0.13461 -0.55902 0.080398 -0.21419 -0.21058 -0.18338 0.42256 -0.089471 0.020898 0.44329 0.19788 -0.14939 0.068547 -0.089977 0.20988 0.10693 -0.09594 0.18108 0.26573 -0.30272 -0.073991 0.36791 0.26379 -0.51514 -0.028854 0.18151 -0.085246 0.12821 -0.043787 -0.069921 0.11035 -0.081047 -0.40334 0.56787 0.28832 0.095682 -0.10386 -0.2966 0.37511 0.21423 0.26251 0.061204 -0.049044 -0.31301 -0.17011 0.38081 0.1122 -0.0064552 -0.56152 0.24561 -0.28631 -0.060872 -0.19164 0.17127
looking 0.20966 -0.093778 -0.57967 0.087719 0.65521 0.022828 0.073286 -0.032381 0.099284 2.4043 -0.48416 0.18374 -0.13939 -0.33077 -0.062413 -0.1177 -0.14474 1.0071 -0.23751 0.11326 0.12709 -0.30707 0.08579 -0.078151 -0.23692 0.38705 0.090611 -0.24977 0.5326 -0.11435 -0.3928 -0.13146 -0.14381 0.032766 0.3998 -0.26076 -0.017793 0.15251 -0.45265 -0.32384 -0.015892 -0.065185 0.16886 -0.29962 0.099026 0.1186 -0.038674 -0.15357 0.04052 -0.3541 -0.22937 -0.098074 -0.10767 -0.26518 0.075998 0.099109 -0.52158 -0.35917 0.023778 0.13024 0.18454 -0.80416 -0.23562 0.3945 0.22311 -0.26546 -0.18744 0.14475 -0.092303 0.15473 0.083148 0.31934 0.14163 0.074605 0.35371 0.36861 0.019037 -0.58105 -0.031167 0.14908 -0.1233 0.49354 0.26938 0.1685 0.10305 -0.067267 -0.049623 0.61657 0.45517 0.13798 0.078201 0.12495 -0.24539 -0.087932 0.055681 0.093838 0.029907 -0.52144 0.17564 -0.16668 -0.14176 0.12104 -0.036221 -0.032348 0.43179 -0.36338 -0.038632 -0.23527 0.2418 0.14665 0.39791 -0.57579 0.24406 -0.037114 0.40703 0.16828 0.087304 0.024628 0.17873 -0.42322 0.38137 -0.056838 -0.15153 -0.063153 0.45051 0.089943 -0.016276 -0.21245 -0.074297 -0.10656 -0.025076 0.0056552 -0.29955 -0.21301 0.33302 -0.049892 -0.4711 -0.14194 -0.022858 -0.085244 -1.608 0.23224 -0.0081778 -0.3337 -0.30147 -0.45297 -0.16587 -0.038997 0.44473 -0.12255 -0.18368 -0.30961 -0.16501 -0.25165 -0.096665 0.37321 0.2581 0.075461 0.052634 -0.52348 -0.12567 -0.042193 -0.19131 0.041825 0.40089 -0.41056 -0.14513 -0.38248 0.52041 0.034505 -0.5316 0.026894 -0.34668 -0.22063 -0.24972 0.013507 -0.56776 0.21119 0.11175 0.43783 0.083382 -0.13099 -0.38128 -0.15004 -0.05883 0.14677 -0.16548 -0.24257 -0.018528 -0.19661 0.23046 0.11465 0.24859 -0.11344 0.11378 0.099269 -0.0012625 0.037219 0.08611 -0.027949 -0.01265 -0.27192 -0.16487 -0.28936 -0.14827 0.087247 -0.041519 -0.097467 -0.059654 -0.0091947 -0.24327 -0.42878 -0.045598 -0.32568 0.046068 -0.036028 -0.20341 -0.15377 -0.24661 -0.4045 0.16619 -0.2005 0.017695 0.44853 0.37998 -0.34443 -0.18245 0.33036 0.13791 -0.61492 -0.21024 0.13066 -0.25055 0.22636 0.4346 -0.1711 -0.44175 -0.26428 -0.015897 0.48939 0.18329 0.10275 -0.055121 0.20791 -0.074218 -0.0088042 -0.12772 0.1548 0.021467 0.37939 -0.17852 -0.59053 -0.014874 0.15012 0.12288 -0.12541 0.38722 0.055021 -0.19568 0.22955 -0.13972 0.58698 0.6518 0.14789 0.29208 -0.15927 0.033137 -0.032527 0.18314 0.38349 -0.58253 0.25915 -0.18229 -0.38741 -0.16356 -0.20095 0.342 -0.069547 -0.0052478 0.23095 0.28279 0.34633 -0.043615 0.24238 0.32134 -0.20558 0.054727 -0.12291 0.064352 -0.088219 -0.38579 -0.20391 0.20878 -0.48497 -0.15371 0.12361 -0.19678 -0.12155 -0.0013713 0.13892
might -0.014185 0.062844 -0.13424 0.059215 -0.12059 -0.013043 -0.12569 -0.19109 -0.29038 2.9925 -0.1456 -0.020801 0.45558 0.14052 -0.098545 -0.11598 -0.091873 0.69774 -0.30441 -0.011794 -0.017302 0.0371 -0.029853 -0.031373 -0.12781 0.32576 -0.071089 -0.21621 0.27183 -0.27323 -0.38141 -0.072256 0.093562 0.04369 0.057669 -0.061405 0.22889 0.15653 -0.175 -0.28385 -0.21273 0.21309 -0.027907 0.06608 0.069568 -0.07923 -0.22474 -0.44241 -0.072484 0.20904 -0.2609 -0.10703 0.12788 0.14153 0.33364 -0.23088 0.0098622 -0.27091 0.1891 0.073634 -0.025862 -0.11743 0.13504 0.47854 0.30143 -0.082175 -0.17891 -0.0093572 0.14476 0.14306 0.23101 0.1264 0.18567 -0.22034 0.086606 -0.0071004 0.11386 -0.22999 -0.27463 0.19819 -0.32308 0.016787 -0.36244 -0.2006 0.077016 -0.33855 0.15716 -0.31744 0.37382 -0.049055 -0.061186 0.029156 -0.082592 0.19193 0.13641 0.10138 0.095117 -0.32493 0.026983 0.42793 -0.38143 0.21892 0.10407 0.29078 0.49243 -1.1936 0.061548 -0.061401 -0.22495 0.47547 0.18774 -0.21281 0.20495 0.016527 0.012921 0.015817 0.11612 -0.32187 -0.14451 -0.21524 0.10306 -0.2279 -0.15776 -0.019356 0.19884 0.078625 0.12109 -0.23438 -0.1906 0.001262 0.18863 -0.14686 -0.067871 0.21823 0.11833 -0.0083156 -0.30501 -0.19789 -0.013269 -0.12992 -1.5631 0.49064 0.10993 -0.21556 0.15746 -0.30891 -0.085208 0.094298 0.079512 0.050684 0.24101 -0.060575 -0.01228 0.13474 -0.11359 -0.39165 0.036144 0.014983 -0.0019475 -0.039309 0.070976 0.085033 -0.58694 -0.1341 0.068142 -0.097204 0.27518 -0.12687 0.37265 0.10769 -0.078578 0.2646 0.30318 -0.21265 0.035221 0.059089 0.28947 0.0051939 0.24304 -0.11058 -0.24809 0.32873 0.0018287 -0.040061 -0.13075 0.00056926 -0.092612 -0.0036349 -0.26355 0.22801 0.032163 0.20172 -0.24161 -0.069412 0.15047 -0.11849 -0.37582 -0.17215 0.2443 0.35415 0.17334 -0.21319 -0.047208 -0.26334 -0.16863 -0.078672 -0.096366 -0.18264 0.11442 0.055416 0.14216 -0.20237 -0.15176 -0.42184 -0.084106 -0.026834 -0.091356 0.50577 -0.32174 -0.39309 0.4 -0.024373 -0.22789 -0.03657 0.1074 -0.021537 0.14431 -0.16059 -0.38955 -0.21991 -0.3197 0.15271 0.30426 0.16099 -0.083755 -0.10603 0.072003 -0.3133 -0.36091 0.22911 0.18798 -0.11641 0.027998 0.074297 0.25947 -0.29129 -0.078438 -0.095171 -0.19985 0.29983 0.031416 -0.38494 -0.086398 0.12296 -0.19165 -0.014669 -0.13217 -0.19647 0.1974 0.16343 0.17536 0.19637 0.0061891 0.24306 0.32975 0.51118 0.022556 0.32252 0.47058 0.32787 0.27687 0.33459 0.13972 -0.25499 -0.1342 -0.058069 -0.11468 0.040079 0.0204 0.22185 0.27108 -0.12814 0.31213 -0.014356 -0.039957 -0.13579 0.208 0.029915 0.30944 0.065634 -0.46031 0.20416 -0.22562 0.08298 0.16077 0.2291 -0.18283 -0.43624 0.1408 -0.054961
company -0.010464 0.39163 -0.33662 -0.84683 0.15433 -0.018507 -0.21521 -0.51394 0.0055722 2.7784 -0.7317 0.040331 0.12255 -0.21674 0.044901 -0.2497 0.19559 1.3566 -0.19514 0.066914 0.3946 0.24551 -0.34957 -0.07881 0.13335 0.22648 -0.091347 0.0094516 0.069236 -0.32644 0.31751 -0.063941 0.092733 0.64521 -0.068239 0.39045 -0.083687 -0.083648 0.19981 -0.14774 0.25461 0.19914 0.27933 -0.24322 0.09882 -0.32354 0.16777 -0.29555 0.36543 0.13093 0.11362 -0.097307 -0.090927 0.27206 -0.097522 -0.38483 0.040447 -0.252 0.35034 -0.54789 0.43454 -0.389 0.049572 0.59363 0.25072 -0.20318 0.064053 0.16337 -0.28892 0.061715 -0.49722 0.023981 0.081569 -0.15475 -0.17447 -0.029285 0.25519 -0.27069 -0.066985 0.23532 0.2441 0.11964 -0.22375 -0.24078 -0.098486 -0.20762 -0.77382 0.69916 0.04517 -0.053558 -0.1128 -0.036958 -0.37487 -0.24288 0.14191 -0.0060118 -0.018057 -0.46063 -0.014689 0.41629 0.043742 0.12396 -0.28764 0.3883 -0.25618 -0.93209 0.6007 0.37488 -0.29642 -0.0044432 -0.070118 0.14031 -0.025384 0.42337 -0.18009 -0.0020668 0.8401 0.19663 0.63289 0.31816 0.30116 0.18255 0.5648 -0.23569 -0.097652 0.2832 0.43568 -0.087018 -0.46105 0.055859 -0.014047 0.030075 0.10563 -0.26131 -0.12569 -0.12196 -0.54208 -0.13919 0.056078 -0.19603 -0.29181 -0.48824 -0.039417 -0.055567 -0.18525 0.071821 -0.092115 0.202 0.26801 -0.39392 0.12197 -0.25809 0.059685 -0.28875 0.11227 0.3714 -0.52194 0.20274 0.22237 -0.052872 -0.4616 0.13812 -0.21861 -0.074643 -0.37099 -0.11487 0.012915 -0.10832 0.33542 -0.27166 -0.22702 -0.14787 -0.59298 -0.14653 -0.14549 -0.39027 -0.15276 0.35521 -0.16505 0.58398 0.8412 -0.046175 0.21379 -0.65961 -0.68491 0.30699 -0.068712 -0.0043984 -0.086723 0.13096 -0.015686 -0.14162 0.32074 0.26579 -0.19753 -0.24909 0.58763 0.30456 0.18604 0.15802 0.16393 -0.16872 -0.090445 0.0029845 -0.023582 0.46096 0.14207 -0.11627 -0.062433 0.11924 -0.71211 -0.083812 0.1363 0.38692 0.61917 0.11584 0.42544 -0.48642 -0.26155 -0.012851 -0.39943 0.12618 0.242 0.68156 -0.096485 -0.48993 -0.16395 0.063033 -0.45254 -0.20757 0.30432 -0.15363 -0.36883 -0.28555 -0.14249 -0.24587 -0.35921 -0.34348 -0.051747 0.090553 0.15935 -0.13188 0.5612 0.34451 -0.097567 -0.5377 0.16771 -0.49156 -0.1978 0.30857 0.21279 -0.081099 0.065559 -0.38106 0.16931 -0.48772 -0.1407 0.44734 -0.18814 -0.056802 0.5251 0.85028 -0.13713 0.21487 0.29107 -0.55315 0.081484 -0.087401 0.56606 0.097683 -0.006652 -0.15748 0.16211 0.15763 -0.24392 -0.024086 -0.21059 -0.037863 0.94303 -0.13673 -0.63093 0.2173 0.21823 0.78548 -0.18056 0.20469 0.056509 0.34943 0.23172 0.11169 -0.96481 -0.036159 0.050163 0.29999 -0.22223 -0.55782 0.018588 0.097204 0.011506 0.33223
